tree
version=v4
num_class=1
num_tree_per_iteration=1
label_index=0
max_feature_idx=31
objective=binary sigmoid:1
feature_names=h4_momentum d1_return_5d d1_rsi14 h4_atr14 ema_spread bb_width d1_vol_ratio d1_atr14 adx h4_rsi14 bb_pctb atr_ratio minus_di rsi14 return_24h obv_zscore plus_di return_12h dow_sin macd_hist volume_ratio h4_trend hour_sin stoch_k hour_cos stoch_d return_8h adx_trend m15_intra_range return_2h dow_cos m15_rsi_last
feature_infos=[-9.5426379302860571:14.062096300820714] [-13.398358133218835:10.266881511393521] [20.863594212030151:80.087284812012214] [38.377857142856946:684.82785714285694] [-6.1792142882220098:4.9896855882903832] [0.14456067257126617:21.857410772137619] [0.52912883207685135:2.0388167194787727] [150.1550000000004:1056.1507142857147] [6.6974474910222286:74.866638811645487] [12.591458230180663:86.215828289784341] [-0.55459169155996868:1.4881793080224299] [0.27459558497039716:2.6126931855562705] [1.7796704484780712:67.611198922632425] [6.8816138459925469:89.029099238477059] [-10.882863499669938:13.814834452162916] [-3.5032431381251379:3.4852983147409513] [2.0214556669328609:53.323245708644521] [-9.709197040657024:13.356170896608122] [-0.95105651629515364:0.95105651629515353] [-136.06076755855085:259.06460862171321] [0.10948905109489052:1.2] [0:1] [-1:1] [0:100] [-1:1] [0.88909710101940442:99.545277807941616] [-7.8246225551172666:13.658736913172875] [-11.587580142623025:11.566842014103763] [3.9099999999998545:1435.9000000000015] [-5.4066176567261319:9.0171073692074231] [-0.80901699437494734:1] [9.3143014190970206:90.909775862643954]
tree_sizes=2927 2699 2901 2908 2708 2692 2701 2584 3013 2817 2830 2908 2702 3141 2704 2907 3025 2930 2705 2685 2722 2906 2706 2710 2806 2586 2811 2910 2707 2718 2919 2806 2907 3023 2503 2910 2714 2902 2697 2808 2817 2921 2921 2912 2919 2816 2915 2820 2827 3017 2915 2716 2911 2707 2813 2811 2714 2715 2829 2814 2829 2590 2821 2709 2805 2822 2178 2812 2601 2916 2494 2815 2841 2603 3029 2923 2283 2499 2915 2712 2898 2714 2717 2931 2826 2710 3037 2928 2801 2829 2499 2837 2827 2932 2719 2928 2714 2698 2817

Tree=0
num_leaves=27
num_cat=0
split_feature=1 15 3 2 3 7 12 9 1 2 5 13 7 14 24 11 1 3 12 6 7 5 28 2 13 15
split_gain=81.5795 34.9893 33.4279 32.6826 36.8797 29.0547 23.1789 22.6645 20.3587 18.7729 21.136 18.0456 16.6898 13.2001 11.5461 10.6622 10.4714 10.4469 14.6556 8.50473 8.3992 6.43015 5.33813 4.96865 3.91859 1.66391
threshold=-0.38200533023767241 -0.18394912678031869 84.862857142857024 70.744117810456217 100.07642857142908 323.50678571428597 25.090915054318746 67.226258814543527 1.1039983591544902 42.567321977975602 0.93064954732296001 57.579559716087672 249.8839285714291 1.0387914766736286 0.1294095225512602 1.1146442324884807 1.5878912598826125 123.99035714285689 23.550076512578084 0.94922748562109527 276.65214285714256 0.81796826198491102 95.054999999998486 51.8677367745601 62.929590612442986 1.5728599284349518
decision_type=2 2 2 2 2 2 2 2 2 2 2 2 2 2 2 2 2 2 2 2 2 2 2 2 2 2
left_child=2 8 -1 4 6 20 7 12 15 14 -11 16 -3 -13 22 -2 -7 23 -19 -9 -6 -10 -4 -12 -5 -15
right_child=1 3 9 24 5 11 -8 19 21 10 17 13 -14 25 -16 -17 -18 18 -20 -21 -22 -23 -24 -25 -26 -27
leaf_value=0.01538646630905903 0.075943985021059868 0.064260748277325849 0.022159768933950108 0.12994253607244485 0.099191810269593825 0.082930649025154485 0.098078372467966524 0.060827905964590118 0.11372885589881671 0.048678647623902484 0.054868328324304418 0.046357288938695972 0.022199306806596042 0.074464622988967291 0.068232661735171674 0.11450326099063295 0.12172433837853247 0.070415781810924463 0.10957452725723689 0.09637871010870061 0.13223050136939141 0.14285087249287282 0.050679379548783716 0.08234626307369157 0.10542363613004452 0.090441469257532311
leaf_weight=43.138565927743912 49.53940087556839 50.243847966194153 40.332020282745361 39.376084983348846 41.742063850164413 45.109299018979073 48.400583058595657 42.129164934158325 42.45270699262619 69.420419216156006 40.297142744064331 50.842513054609299 67.70542174577713 39.51054847240448 61.687790602445602 38.66544184088707 39.499305754899979 47.727915480732918 73.936915665864944 39.410962522029877 53.861772090196609 52.0123111307621 41.086835041642189 39.865870043635368 40.931834757328033 39.264106929302216
leaf_count=176 207 209 165 168 176 189 204 175 180 287 167 210 277 165 257 164 168 199 313 166 230 223 170 167 173 165
internal_value=0.0802259 0.0906528 0.061523 0.0845483 0.079795 0.092502 0.0639086 0.0555765 0.11197 0.0663536 0.0749154 0.0812088 0.0400989 0.0682481 0.0501681 0.0928796 0.10101 0.0839806 0.0941756 0.0779846 0.117804 0.129789 0.0364996 0.0685215 0.117444 0.0824187
internal_weight=1278.19 820.697 457.493 638.028 557.72 309.83 247.89 199.489 182.67 414.355 271.248 214.226 117.949 129.617 143.107 88.2048 84.6086 201.828 121.665 81.5401 95.6038 94.465 81.4189 80.163 80.3079 78.7747
internal_count=5350 3449 1901 2675 2334 1303 1031 827 774 1725 1133 897 486 540 592 371 357 846 512 341 406 403 335 334 341 330
is_linear=0
shrinkage=1


Tree=1
num_leaves=24
num_cat=0
split_feature=1 4 1 21 5 0 31 0 15 0 18 5 3 0 4 31 3 10 22 20 0 1 6
split_gain=72.9069 38.5727 72.461 39.6148 34.1967 26.9057 25.6672 25.442 19.9739 17.4586 23.0878 18.1496 15.6897 15.6018 25.7386 13.976 13.5398 12.0276 11.8455 11.1939 10.1531 8.73051 8.04677
threshold=1.568059768548036 0.05312156750048163 -1.8997598267909142 1.0000000180025095e-35 1.2229400902995768 0.4577747968413593 43.971151704772105 -1.2704257101079972 -0.22293509306209949 0.31316514714682114 1.0000000180025095e-35 1.9080398708385802 84.386428571428453 0.60984387914626581 0.69321873677435419 51.656934039913821 107.70321428571451 0.81818236886296425 -0.78656609248549292 1.0394111953903982 0.55668746158474847 0.58518566051151144 1.0144711772125483
decision_type=2 2 2 2 2 2 2 2 2 2 2 2 2 2 2 2 2 2 2 2 2 2 2
left_child=1 2 4 -3 -1 12 -2 -6 -8 10 -5 20 -4 16 -15 -9 19 -16 -14 -10 -11 22 -20
right_child=6 3 5 9 7 -7 8 15 13 11 -12 -13 18 14 17 -17 -18 -19 21 -21 -22 -23 -24
leaf_value=-0.068406139886805647 0.049086497967043861 -0.077457001734299716 -0.018072961569669001 -0.015711359987089946 -0.040185711191935251 0.053176250675848954 0.046083584389157231 0.028562525773175366 -0.0050871864624184955 -0.01719426640140383 -0.061568164145605689 -0.034971530217237617 -0.010599004257234269 0.045560527211495026 -0.024419883931086721 -0.017374361417166313 0.014140112947227945 0.01820202838383516 0.026315046508302194 -0.043128821457243706 0.014113918504705569 0.042568763526711288 -0.0017222202562102047
leaf_weight=52.265703275799751 56.736470684409142 42.799546584486961 63.917766198515892 74.82256992161274 73.460138872265816 42.036587581038475 38.511030167341232 38.712948143482208 57.567596897482872 53.060529693961143 60.619857475161552 61.6574786901474 49.296053797006607 57.12438477575779 39.71802020072937 41.583427771925926 52.105917260050774 40.461487770080566 65.132306680083275 39.778098925948143 77.307788401842117 40.032399952411652 59.403391197323799
leaf_count=213 243 174 266 312 303 180 165 164 241 221 248 255 206 244 165 173 220 171 276 164 326 171 249
internal_value=-0.00534456 -0.0139667 -0.00433845 -0.0276331 -0.0298876 0.0121274 0.0148709 -0.0167492 0.00888174 -0.0210823 -0.0362642 -0.010344 0.00588419 0.00384676 0.0172848 0.00472144 -0.00849663 -0.00285768 0.0130646 -0.0206677 0.00133476 0.020187 0.0129432
internal_weight=1278.11 896.108 525.841 370.268 206.022 319.819 382.003 153.757 325.267 327.468 135.442 192.026 277.782 286.756 137.304 80.2964 149.452 80.1795 213.864 97.3457 130.368 164.568 124.536
internal_count=5350 3737 2201 1536 853 1348 1613 640 1370 1362 560 802 1168 1205 580 337 625 336 902 405 547 696 525
is_linear=0
shrinkage=0.0552974


Tree=2
num_leaves=26
num_cat=0
split_feature=2 3 2 4 6 5 17 2 18 15 2 11 13 29 21 5 7 2 4 3 30 12 26 3 11
split_gain=58.4985 39.5987 47.2175 29.8593 30.005 23.9069 19.4854 19.108 18.6198 18.0552 13.6575 12.5106 12.1412 16.3141 12.1098 12.312 11.9559 18.5246 12.2793 11.5609 9.59639 9.04319 8.25312 5.99516 3.05317
threshold=64.640389785788258 96.41857142857161 48.486404673501553 0.081891292004445823 0.96058369889958606 1.1888696975627615 -0.27628244139675789 56.409359946332053 0.7694208842938135 0.73313508709779629 55.935514405657329 1.178440091561066 60.082811239115991 0.034452644963167696 1.0000000180025095e-35 1.0592230510469138 553.96035714285756 37.034930301066332 -0.69949347535131479 120.30000000000007 0.3090169943749474 17.046828338358939 -0.098201596885311146 135.137142857143 0.98345435347459531
decision_type=2 2 2 2 2 2 2 2 2 2 2 2 2 2 2 2 2 2 2 2 2 2 2 2 2
left_child=1 7 5 14 21 -3 -2 22 11 24 -6 12 -8 -14 15 -4 17 -7 -19 -12 -11 -5 -1 -17 -9
right_child=6 2 3 4 10 16 8 9 -10 20 19 -13 13 -15 -16 23 -18 18 -20 -21 -22 -23 -24 -25 -26
leaf_value=-0.06747213707302889 0.052033506427032687 -0.05641883121649257 -0.011265855175507851 -0.050542179040851197 -0.008541525312879111 -0.045290458303013363 0.043749745384154097 0.0092002748890258265 -0.01687099876099175 -0.019663017640995518 0.0042123399093769434 -0.0090293007358367879 -0.013661335132198429 0.032173382559059792 0.045287072089179078 0.013713453917626019 0.0065703417980992303 0.015480099602670459 -0.024380332338539829 0.045239039135728361 -0.057192195444664987 -0.015871458822988349 -0.033423074057273586 0.041769633771051716 -0.011102613377743343
leaf_weight=45.168580159544945 40.089578300714493 52.529098317027092 40.707579478621483 40.831441700458527 76.296415358781815 65.448164522647858 65.758911788463593 39.194024667143822 57.598376005887985 42.829093918204308 43.99818043410778 39.647641748189926 40.492176666855812 56.171996563673019 52.557198911905289 59.184093445539474 57.592867106199265 41.248018190264702 54.1816436201334 39.759755253791809 40.520659312605858 52.482475787401199 42.606535285711288 38.335592329502106 52.43775600194931
leaf_count=184 172 215 170 168 319 269 281 165 240 178 185 166 169 239 225 250 242 174 225 170 166 219 176 164 219
internal_value=-0.00505021 -0.0116011 -0.00485424 0.00623919 -0.0061856 -0.0230302 0.0163047 -0.0299466 0.0107608 -0.019372 0.00831519 0.0186601 0.0254577 0.0129681 0.0227493 0.0141459 -0.0149686 -0.0226946 -0.00715155 0.023712 -0.0379394 -0.0310629 -0.0509786 0.0247817 -0.00242232
internal_weight=1277.67 977.909 715.153 444.153 253.368 271 299.759 262.757 259.669 174.982 160.054 202.071 162.423 96.6642 190.784 138.227 218.471 160.878 95.4297 83.7579 83.3498 93.3139 87.7751 97.5197 91.6318
internal_count=5350 4083 2995 1870 1061 1125 1267 1088 1095 728 674 855 689 408 809 584 910 668 399 355 344 387 360 414 384
is_linear=0
shrinkage=0.0552974


Tree=3
num_leaves=26
num_cat=0
split_feature=2 3 2 4 9 5 26 17 0 16 2 12 9 2 24 27 10 27 3 7 0 31 0 26 9
split_gain=52.258 35.3356 42.1567 26.7028 22.6435 21.3579 19.4455 17.5003 18.1368 20.3444 17.0754 15.7966 23.6993 15.1408 13.8179 12.6914 11.5969 10.4278 8.9814 8.61192 15.6204 14.4616 8.22572 7.38618 5.09818
threshold=64.640389785788258 96.41857142857161 48.486404673501553 0.081891292004445823 56.35003999119234 1.1888696975627615 -0.024682626789068737 -0.27628244139675789 0.56445788098528082 29.906325440855987 56.409359946332053 25.215079671681693 63.468288873881399 70.964391217650572 0.1294095225512602 0.57175084423991163 0.92872380618732209 -0.63646793894619147 129.63892857142858 386.99178571428575 -0.84611908775172873 54.2198953359526 0.14609365155109358 -0.098201596885311146 62.583529082729662
decision_type=2 2 2 2 2 2 2 2 2 2 2 2 2 2 2 2 2 2 2 2 2 2 2 2 2
left_child=1 10 5 19 18 -3 -6 -2 13 -10 23 12 -12 17 22 -16 24 -9 -5 20 -4 -22 -7 -1 -8
right_child=7 2 3 4 6 14 16 8 9 -11 11 -13 -14 -15 15 -17 -18 -19 -20 -21 21 -23 -24 -25 -26
leaf_value=-0.063791400351588173 0.049352173192853038 -0.053324629601022598 -0.014515668005192 -0.048727038949233734 0.038327138695113561 -0.037625229316895492 -0.030718396703622163 0.00091834138809200768 0.057280930887999779 0.0072855999513864829 -0.048929197654255872 0.0071276340419780485 0.00041367748526205308 0.024242603891551185 0.020015282442546405 -0.018821643956525039 0.018884612895199295 -0.033737001331749408 -0.011551446917862583 0.043522654781071812 0.043983405853051674 0.0035497681380440307 -0.0065609299549426233 -0.031570799273127351 -0.004399450943365516
leaf_weight=45.140773519873619 39.945085480809212 52.514550060033798 39.234070837497711 39.930056497454643 41.202441200613976 77.083683848381042 40.269884571433067 66.182216227054596 42.750383630394936 58.826055601239204 73.561645820736885 52.079777553677559 49.390793442726135 47.994957610964775 51.362756431102753 50.764697954058647 42.07013975083828 43.69750639796257 39.31248040497303 42.157761111855507 60.497005388140678 48.579314410686493 39.263250589370728 42.612571939826012 50.575523748993874
leaf_count=184 172 215 164 164 176 318 167 278 184 248 302 219 207 204 217 211 178 181 164 181 259 205 164 176 212
internal_value=-0.00477357 -0.0109641 -0.00458775 0.00590024 -0.00584392 -0.0217603 0.00528535 0.0154244 0.0101741 0.028361 -0.0282917 -0.0182978 -0.0290838 -0.00153716 -0.0141409 0.000671645 -0.0049765 -0.0128594 -0.0302936 0.0215319 0.0152462 0.0259883 -0.0271404 -0.0481786 -0.0160909
internal_weight=1277 977.603 714.818 443.829 253.361 270.989 174.118 299.396 259.451 101.576 262.786 175.032 122.952 157.875 218.474 102.127 132.916 109.88 79.2425 190.468 148.31 109.076 116.347 87.7533 90.8454
internal_count=5350 4083 2995 1870 1061 1125 733 1267 1095 432 1088 728 509 663 910 428 557 459 328 809 628 464 482 360 379
is_linear=0
shrinkage=0.0552974


Tree=4
num_leaves=24
num_cat=0
split_feature=1 4 1 21 5 31 8 15 3 18 3 9 31 5 28 4 6 20 25 31 18 7 30
split_gain=57.8935 33.2623 55.4541 34.0042 27.7167 21.8296 17.6909 17.1809 16.7573 15.97 19.9177 15.472 13.5594 10.5415 12.7788 10.5 9.3503 8.05999 7.88481 7.43202 7.24972 6.7207 6.44306
threshold=1.568059768548036 0.05312156750048163 -1.8997598267909142 1.0000000180025095e-35 1.3600248476687211 43.971151704772105 29.695758994813406 -0.22293509306209949 84.386428571428453 -1.0000000180025095e-35 105.65428571428545 35.998396438439933 60.281075155926672 0.96113704370085051 34.745000000000807 -1.0833933151147945 1.1810065664610396 1.0403122890928798 61.884832684350407 58.685009209916281 -1.0000000180025095e-35 262.49321428571477 1.0000000180025095e-35
decision_type=2 2 2 2 2 2 2 2 2 2 2 2 2 2 2 2 2 2 2 2 2 2 2
left_child=1 2 4 -3 -1 -2 9 -7 -4 19 21 15 18 -10 -15 -6 22 -14 -9 -5 -20 -11 -16
right_child=5 3 8 6 11 7 -8 12 13 10 -12 -13 17 14 16 -17 -18 -19 20 -21 -22 -23 -24
leaf_value=-0.056751553346381718 0.045198624030291824 -0.071050734430821702 -0.013482409061350972 0.019129353159607412 -0.007857072026096661 0.042629307424406258 -0.042099093639234968 0.0080032800563339165 -0.00030195478308259519 -0.025742702500582852 -0.0012581983873191805 0.01086521623659811 0.028411985531883715 0.046419988528942864 0.010682381187546882 -0.045449931128038731 -0.0073817638776232358 4.9060294951474792e-05 -0.033804169263210955 -0.012136613018770889 -0.0035913621549659731 -0.057088731111476151 0.041070169235490873
leaf_weight=61.075739234685898 56.366414919495583 42.788445845246315 66.202060833573341 55.620905488729477 46.035686329007149 38.27531111240387 76.188776046037674 62.113935828208923 71.097247451543808 43.864241793751717 72.103814378380775 54.216246351599693 74.960029736161232 56.855954021215439 45.131219744682312 44.507183983922005 39.304620191454887 51.388471856713295 43.688598781824112 39.294350236654282 54.147067934274673 40.337692826986313 40.323382169008255
leaf_count=250 243 174 276 235 192 165 314 262 299 182 302 228 319 244 191 183 165 216 181 164 227 165 173
internal_value=-0.00451232 -0.0121967 -0.00324143 -0.0248836 -0.0255943 0.0135307 -0.0188139 0.00801123 0.0111915 -0.0117188 -0.0225661 -0.012413 0.00334675 0.0176841 0.0247455 -0.0263605 0.0148218 0.0168663 -0.00733247 0.00613115 -0.0171094 -0.0407952 0.0250554
internal_weight=1275.89 894.948 524.749 370.198 205.835 380.94 327.41 324.573 318.914 251.221 156.306 144.759 286.298 252.712 181.615 90.5429 124.759 126.349 159.95 94.9153 97.8357 84.2019 85.4546
internal_count=5350 3737 2201 1536 853 1613 1362 1370 1348 1048 649 603 1205 1072 773 375 529 535 670 399 408 347 364
is_linear=0
shrinkage=0.0552974


Tree=5
num_leaves=24
num_cat=0
split_feature=1 4 1 3 0 0 12 5 14 2 6 3 2 13 0 2 6 18 6 3 9 23 2
split_gain=53.4214 33.2622 42.2383 24.1544 23.8559 20.6398 30.3181 26.7816 21.8526 18.8477 16.9651 16.3391 14.2682 13.5374 29.5024 13.1658 20.3635 12.8379 17.345 10.3711 10.2527 11.6349 8.25579
threshold=-0.38200533023767241 -0.036047726939263204 1.6426667096486771 84.862857142857024 0.56445788098528082 -1.2704257101079972 23.806210888571943 1.1476934435291508 -1.6484202008524071 68.526218952383829 0.8728204584901037 135.137142857143 71.020613963457478 52.4411147022251 0.096951473468065444 43.793732479906616 0.96734691666450912 1.0000000180025095e-35 0.96058369889958606 97.435000000000272 49.953772823215132 45.983434591468516 60.945928033953003
decision_type=2 2 2 2 2 2 2 2 2 2 2 2 2 2 2 2 2 2 2 2 2 2 2
left_child=3 20 4 -1 9 8 15 -8 -5 19 -6 -9 13 -4 -15 -7 -17 18 -16 22 21 -2 -3
right_child=1 2 12 5 10 6 7 11 -10 -11 -12 -13 -14 14 17 16 -18 -19 -20 -21 -22 -23 -24
leaf_value=-0.058705473643656192 0.030886673745722484 -0.031371584389395551 0.030103190503925563 -0.016412575264010396 -0.021320071514893176 -0.048081883618663099 -0.021642117590093241 0.00073703871358216783 -0.068220151278229779 0.0057989501196144023 0.024785301446863185 0.046119899598837451 0.038561710724415825 -0.040674762915121773 -0.02863375239739413 -0.04068439125918074 0.0079993120301070121 0.028760192291939692 0.016014093742567338 -0.018979309016630995 0.046316323389610344 -0.0063646852703996021 -0.063805965322184466
leaf_weight=42.979352161288261 67.145259514451027 51.988081514835358 62.09724734723568 63.974255666136742 40.34505270421505 51.36454576253891 54.309716790914536 42.389526963233948 40.441428259015083 44.090194031596184 60.417489528656006 56.042069062590599 52.615860924124718 41.85546512901783 42.870964482426643 47.464770957827568 57.786982297897339 71.808524206280708 68.692655563354492 74.159185513854027 53.782237097620964 40.876803338527679 45.054023593664169
leaf_count=176 287 215 266 266 168 211 226 178 165 186 256 240 226 173 178 196 243 306 291 309 232 172 184
internal_value=-0.00426785 0.00418958 -0.00134483 -0.0194099 -0.0158913 -0.0153044 -0.00811905 0.00938615 -0.036524 -0.0262824 0.00625823 0.026576 0.0121732 0.00732011 0.00100735 -0.0251907 -0.0139788 0.0105683 -0.00113571 -0.0345831 0.0266184 0.0167817 -0.046479
internal_weight=1274.55 817.799 655.995 456.753 316.054 413.773 309.358 152.741 104.416 215.291 100.763 98.4316 339.941 287.325 225.228 156.616 105.252 183.372 111.564 171.201 161.804 108.022 97.0421
internal_count=5350 3449 2758 1901 1318 1725 1294 644 431 894 424 418 1440 1214 948 650 439 775 469 708 691 459 399
is_linear=0
shrinkage=0.0552974


Tree=6
num_leaves=24
num_cat=0
split_feature=2 3 1 6 8 10 13 7 0 13 2 17 22 1 13 6 30 27 8 5 15 13 6
split_gain=41.4232 36.0483 30.2955 30.8055 26.4541 24.8047 24.2523 18.8179 16.6306 22.9301 15.666 26.5432 15.4855 15.2262 26.6876 17.5439 14.795 10.9955 9.49744 9.35811 7.02341 6.60924 6.27281
threshold=64.250553257806985 102.78178571428545 -1.8997598267909142 0.8579937092803035 26.349332674800277 0.61288286051178453 46.505919264310087 354.37321428571471 0.7304080377612433 52.297826127749623 56.067126135987188 -0.17590729488532461 -0.70710678118654735 1.7632193110794117 63.883786537290803 0.68867128547439627 1.0000000180025095e-35 -0.34232998745245874 41.724677695092886 0.96113704370085051 1.1744945183254307 55.688399662882581 1.2511944659528076
decision_type=2 2 2 2 2 2 2 2 2 2 2 2 2 2 2 2 2 2 2 2 2 2 2
left_child=1 10 12 5 8 -4 -2 -6 9 -5 19 -12 -3 14 15 -8 -15 -13 22 -1 -18 -9 -14
right_child=6 2 3 4 7 -7 13 21 -10 -11 11 17 18 16 -16 -17 20 -19 -20 -21 -22 -23 -24
leaf_value=-0.064224000154066888 0.048499215880487154 0.0063155621333421015 0.0020876740236814651 0.039340162778037459 0.023098230400960776 -0.049094566249773937 -0.014473526484343481 -3.3055755530367789e-05 0.054764097254823015 -0.0086886245917650335 0.010753729481776076 -0.016467263896184737 -0.051303276426614738 0.038578946924971956 -0.044068951806140573 0.034125292712350139 0.020621882454323854 -0.047143311754757035 -0.0083582954710571273 -0.029734091521538383 -0.011111065659698927 -0.028429016095413918 -0.024131459071116752
leaf_weight=41.267958387732506 47.774954542517662 47.131371051073074 68.489707678556442 65.656266108155251 55.133742824196815 49.515379890799522 46.07988914847374 41.895808279514313 51.269772604107857 55.872889697551727 68.447919860482216 75.570659041404724 57.180533796548843 62.405941307544708 41.676710739731789 43.999902978539467 38.454011291265488 67.79910697042942 44.086451426148415 58.092493578791618 46.854858592152596 60.907232269644737 48.182746976613998
leaf_count=169 207 198 290 282 234 204 193 177 221 234 289 315 235 268 172 188 164 279 184 241 197 253 200
internal_value=-0.00474269 -0.0105526 -0.00309652 0.00482997 0.0134855 -0.0193765 0.0122269 -0.00284408 0.028423 0.0172632 -0.0260031 -0.0174927 -0.0211794 0.00599966 -0.00764306 0.00923017 0.0181725 -0.0309944 -0.0298979 -0.0441044 0.00321074 -0.0168227 -0.0389095
internal_weight=1283.75 956.5 645.322 448.741 330.736 118.005 327.246 157.937 172.799 121.529 311.178 211.818 196.581 279.471 131.757 90.0798 147.715 143.37 149.45 99.3605 85.3089 102.803 105.363
internal_count=5394 4005 2712 1895 1401 494 1389 664 737 516 1293 883 817 1182 553 381 629 594 619 410 361 430 435
is_linear=0
shrinkage=0.0552974


Tree=7
num_leaves=23
num_cat=0
split_feature=2 3 1 11 6 25 23 6 12 13 0 2 18 2 17 5 27 18 5 19 1 13
split_gain=37.0292 32.2281 27.0776 36.3661 27.5218 32.1461 24.5126 16.3593 16.7874 15.3535 41.6037 28.3735 15.544 14.0927 23.7056 10.9184 9.82919 9.67831 8.48034 8.09386 6.14556 4.40013
threshold=64.250553257806985 102.78178571428545 -1.8997598267909142 1.1708712137327713 0.8579937092803035 66.165822281099523 43.923506559695539 0.68867128547439627 11.598696975880708 52.297826127749623 0.66353529282842116 48.486404673501553 1.0000000180025095e-35 56.067126135987188 -0.17590729488532461 0.79615658194150873 -0.34232998745245874 1.0000000180025095e-35 0.96113704370085051 1.613693829522598 0.16385532197885636 58.614319664438852
decision_type=2 2 2 2 2 2 2 2 2 2 2 2 2 2 2 2 2 2 2 2 2 2
left_child=1 13 3 17 5 -4 15 -8 -9 11 21 -6 -12 18 -15 -2 -16 -3 -1 -10 -13 -11
right_child=6 2 4 -5 9 -7 7 8 19 10 12 20 -14 14 16 -17 -18 -19 -20 -21 -22 -23
leaf_value=-0.061020637667346125 0.01815965567585872 -0.049686218386063526 0.0054650937308176033 0.01196443500361955 -0.0068001934911341624 -0.053078030750829355 -0.018527647187994108 -0.013124216885098254 0.011214878111672596 -0.01398279198380647 0.010631958419201228 0.031178275172820884 0.053517103549324832 0.010166909512995198 -0.015556896501895952 0.059001759457172717 -0.044567569673097961 -0.018215450801186979 -0.028125227489809008 0.040397060875841197 0.061737858909879297 -0.038822741536279785
leaf_weight=41.046006947755814 40.921009346842766 78.267865672707558 70.098912879824638 69.624239191412926 45.957722425460815 47.928876459598541 75.03450420498848 53.807178810238838 66.236274793744087 48.532824248075485 75.600981920957565 38.535748764872551 38.956118106842041 68.424092635512352 75.567294046282768 39.048466324806213 67.760835364460945 48.471578910946846 58.0228111743927 51.663422241806984 43.00562509894371 39.709941998124123
leaf_count=169 175 322 297 293 193 197 314 226 281 203 320 165 168 289 315 171 279 202 241 222 188 164
internal_value=-0.00448483 -0.00997966 -0.00292646 -0.0200321 0.00457005 -0.018303 0.0115738 0.00295091 0.0123547 0.0127614 0.00330573 0.0277783 0.025251 -0.0245973 -0.0165309 0.0381214 -0.0292923 -0.0376557 -0.0417984 0.0240282 0.0473296 -0.0251649
internal_weight=1282.22 955.511 644.69 196.364 448.327 118.028 326.711 246.741 171.707 330.299 202.8 127.499 114.557 310.821 211.752 79.9695 143.328 126.739 99.0688 117.9 81.5414 88.2428
internal_count=5394 4005 2712 817 1895 494 1389 1043 729 1401 855 546 488 1293 883 346 594 524 410 503 353 367
is_linear=0
shrinkage=0.0552974


Tree=8
num_leaves=27
num_cat=0
split_feature=2 3 1 11 4 23 0 16 8 1 2 12 7 1 4 30 5 8 19 7 0 11 5 4 11 26
split_gain=33.1119 28.8285 24.2091 32.5603 25.3706 22.0364 21.0974 20.6748 16.8935 14.1262 12.699 18.0889 13.8418 12.319 25.4211 13.9602 9.91955 9.21677 10.7823 8.95863 8.51844 8.49666 7.71863 7.32811 6.38879 6.17832
threshold=64.250553257806985 102.78178571428545 -1.8997598267909142 1.1708712137327713 -0.046962517402779951 43.923506559695539 0.66353529282842116 24.589481394981785 21.727422949006428 1.5878912598826125 56.067126135987188 23.880203830429753 289.69214285714241 1.7805019746928943 0.37066207931582545 1.0000000180025095e-35 0.79615658194150873 31.361656493072974 5.0591775812244784 386.99178571428575 -0.022326088898311221 0.95604633923454696 0.96113704370085051 -0.13525349658518956 0.97426665615080732 0.21193270986816784
decision_type=2 2 2 2 2 2 2 2 2 2 2 2 2 2 2 2 2 2 2 2 2 2 2 2 2 2
left_child=1 10 3 20 17 16 7 9 -8 24 22 12 21 14 -7 -15 -2 18 -4 -10 -3 -12 -1 -13 -6 -17
right_child=5 2 4 -5 6 13 8 -9 19 -11 11 23 -14 15 -16 25 -18 -19 -20 -21 -22 -23 -24 -25 -26 -27
leaf_value=-0.058072679378273671 0.017184028115393265 -0.04804153150274558 0.048370725686989476 0.011306285314050519 -0.0045977573756917122 0.0086045700280626327 0.041326522145535068 -0.050432745448008375 0.015907701469328857 0.019816839169149687 -0.060280112847581058 0.021350007217771898 -0.0041675842681934512 0.036655634402986914 -0.045445623988854551 -0.015665841742162435 0.056212031618956167 0.0045041561317994035 0.010804974776716492 -0.018770163723190809 -0.018980952733765016 -0.0247739046268666 -0.026612644928305944 -0.011267095819298953 -0.035488784449488053 0.015149832883605425
leaf_weight=40.75978097319603 40.851831838488579 72.533175885677338 57.08382822573185 69.631115719676018 41.751216217875481 75.497272402048111 40.12405164539814 43.988390535116196 44.5940111130476 41.336303681135178 40.263136029243469 40.095661878585815 45.390540644526482 51.762589931488037 40.554350718855858 39.313817858695984 38.735933497548103 53.810359999537468 39.412360951304436 45.735835537314415 53.908008381724358 42.405107662081718 57.933771103620529 43.454506725072861 39.823967933654785 39.479343637824059
leaf_count=169 175 299 248 293 175 320 173 181 189 177 165 170 190 223 167 165 171 228 168 191 225 176 241 182 165 168
internal_value=-0.00424317 -0.00944324 -0.0027677 -0.018954 0.00432573 0.0109542 -0.00502237 -0.0180371 0.0116016 -0.00638983 -0.0232804 -0.0156281 -0.0286607 0.0027889 -0.0102951 0.0144239 0.0361986 0.0228205 0.0330437 -0.00161065 -0.035663 -0.0421128 -0.0396484 0.0043381 -0.0196994 -0.000177545
internal_weight=1280.23 954.035 643.733 196.072 447.66 326.195 297.354 166.9 130.454 122.911 310.303 211.609 128.059 246.607 116.052 130.556 79.5878 150.307 96.4962 90.3298 126.441 82.6682 98.6936 83.5502 81.5752 78.7932
internal_count=5394 4005 2712 817 1895 1389 1251 698 553 517 1293 883 531 1043 487 556 346 644 416 380 524 341 410 352 340 333
is_linear=0
shrinkage=0.0552974


Tree=9
num_leaves=25
num_cat=0
split_feature=1 31 4 1 21 11 21 4 5 3 19 2 2 0 9 9 25 25 22 1 25 1 11 27
split_gain=29.8889 27.4907 25.4249 37.4195 28.6063 27.3197 18.7271 16.9383 13.693 18.6959 13.4967 12.2464 12.076 20.6297 20.3399 11.2717 11.158 21.7165 11.0985 9.50079 9.10073 8.23751 5.76094 5.02731
threshold=1.5878912598826125 46.260869051671612 -0.0048299732276196944 -1.8997598267909142 1.0000000180025095e-35 1.1708712137327713 1.0000000180025095e-35 -0.63957201948411802 2.2738019220044063 131.39142857142858 -1.5465464549023584 66.804694610198709 64.640389785788258 0.43757575431609969 63.468288873881399 33.612858150834114 81.479199965737877 59.946059737460331 0.25881904510252091 1.0000000180025095e-35 63.107780716681155 2.4322546421776674 0.82565379868055266 1.4028025742900863
decision_type=2 2 2 2 2 2 2 2 2 2 2 2 2 2 2 2 2 2 2 2 2 2 2 2
left_child=2 22 3 5 -4 15 7 -5 9 12 19 16 13 20 -14 -1 17 -3 -12 -9 -6 -18 -2 -13
right_child=1 11 4 6 8 -7 -8 10 -10 -11 18 23 14 -15 -16 -17 21 -19 -20 -21 -22 -23 -24 -25
leaf_value=-0.057123672769059934 0.021099501658812782 0.0069350205382409857 -0.053086290242996013 0.037228109949991955 -0.025602547655538144 0.0060704497750371875 0.042381902866223446 -0.004542544461422663 -0.042620831475958174 0.020331497926598496 -0.038724097299746595 0.0057726953484271626 0.02527892042840181 0.00049401970970628197 -0.028057663471834957 -0.022287867075063257 0.026746231543883212 -0.041676467729361434 0.00060561496795929353 0.029628004457008198 -0.059331954763599912 -0.007744443329808416 0.050339942093967971 0.029551071416656836
leaf_weight=46.66567924618721 38.507389903068542 52.918555736541748 65.592031106352806 41.286256164312363 57.831369653344154 77.754936799407005 50.784018397331238 50.225146219134331 42.450298219919205 53.538814201951027 40.413459777832031 65.213874265551567 47.652131736278534 62.097146689891815 39.721495509147644 72.517831578850746 38.395761787891388 58.970667287707329 46.963266879320145 48.457192063331604 42.528562963008881 46.153406351804733 44.784419342875481 46.440795972943306
leaf_count=193 166 225 271 177 241 327 220 212 175 227 168 278 203 261 165 303 164 244 199 209 175 194 197 200
internal_value=-0.00401585 0.00870332 -0.00963487 -0.000919206 -0.019694 -0.0193439 0.0121306 0.00534427 -0.0133355 -0.00920442 -0.00176143 0.00108246 -0.0155573 -0.024465 0.000969853 -0.0359643 -0.00722008 -0.0186654 -0.0175659 0.0122109 -0.0399387 0.00788908 0.0368272 0.01568
internal_weight=1277.86 391.385 886.48 475.068 411.412 196.938 278.129 227.345 345.82 303.37 186.059 308.093 249.831 162.457 87.3736 119.184 196.438 111.889 87.3767 98.6823 100.36 84.5492 83.2918 111.655
internal_count=5394 1668 3726 2008 1718 823 1185 965 1447 1272 788 1305 1045 677 368 496 827 469 367 421 416 358 363 478
is_linear=0
shrinkage=0.0552974


Tree=10
num_leaves=25
num_cat=0
split_feature=1 31 4 21 21 1 24 4 8 0 4 6 28 18 19 2 25 19 8 25 0 5 14 26
split_gain=26.7404 24.707 22.7426 33.6136 25.6775 20.576 21.4023 15.1709 15.1479 14.4419 14.3528 14.0204 13.0878 12.4001 12.0893 11.4742 11.2696 11.1024 10.9849 10.2143 10.5069 7.23761 6.97628 4.31774
threshold=1.5878912598826125 46.260869051671612 -0.0048299732276196944 1.0000000180025095e-35 1.0000000180025095e-35 -1.8997598267909142 -0.12940952255126037 -0.63957201948411802 24.078829016355709 0.60297475922285193 0.40302084644253605 1.1293605323718257 89.975000000000378 -1.0000000180025095e-35 0.99532759787183178 73.561494669473731 93.874413972885932 0.76889662289607486 30.383583901649626 57.499180840134692 0.64336072682703593 1.9388056879999789 0.36685603439832187 -0.24490754738303863
decision_type=2 2 2 2 2 2 2 2 2 2 2 2 2 2 2 2 2 2 2 2 2 2 2 2
left_child=2 23 3 5 -4 6 12 -7 9 13 -10 -12 -1 -6 18 16 19 -15 -9 -3 22 -8 -21 -2
right_child=1 15 4 -5 8 7 21 14 10 -11 11 -13 -14 17 -16 -17 -18 -19 -20 20 -22 -23 -24 -25
leaf_value=-0.057807965498977716 0.04793259622768499 0.011366232978731733 -0.050339776048685766 0.039622643472019783 0.01171581656482909 0.035277535145801731 -0.018515181540722903 0.022529681818091819 -0.0012599310145039145 0.022380465989633856 -0.057672679734963955 -0.015947266635784024 -0.016193228576857392 -0.0074485481327408324 -0.019346614754751738 0.028811760806328246 0.021889122335617607 -0.044969968873178369 -0.012995320436099233 -0.013758910862119115 -0.0001149533188630885 0.011463621674006705 -0.044885935826528729 0.022574420491382204
leaf_weight=49.866557568311691 40.504755422472954 59.465990945696831 65.362125918269157 55.013077825307846 47.289265066385269 41.175257787108421 43.428044334053993 72.307420119643211 47.765799731016159 51.666246071457863 52.383233964443207 46.299218520522118 42.917756676673889 59.88607057929039 72.087744101881981 39.246471270918846 45.551892146468163 40.040652930736542 41.549650594592094 47.506488561630249 75.114982947707176 55.789437398314476 40.95136222243309 42.351195096969604
leaf_count=207 180 254 271 239 200 177 182 311 201 220 215 193 180 252 302 170 195 166 175 199 318 235 169 183
internal_value=-0.00380042 0.00824055 -0.00912044 -0.000868545 -0.018642 -0.00620454 -0.0195191 0.00504506 -0.0126185 -0.0026725 -0.0260937 -0.0381243 -0.0385768 -0.0114912 -0.00166408 0.00102504 -0.00305457 -0.0225232 0.00952319 -0.00817928 -0.0153136 -0.00167881 -0.0282024 0.034985
internal_weight=1275.52 390.693 884.828 474.135 410.693 419.122 192.002 227.12 345.33 198.882 146.448 98.6825 92.7843 147.216 185.945 307.837 268.591 99.9267 113.857 223.039 163.573 99.2175 88.4579 82.856
internal_count=5394 1668 3726 2008 1718 1769 804 965 1447 838 609 408 387 618 788 1305 1135 418 486 940 686 417 368 363
is_linear=0
shrinkage=0.0552974


Tree=11
num_leaves=26
num_cat=0
split_feature=2 5 0 25 28 6 14 2 2 4 6 0 4 15 6 2 23 7 0 0 0 31 14 2 14
split_gain=25.1903 20.1846 35.0343 18.6813 18.419 13.7295 19.6189 13.2796 13.1734 18.5046 26.3491 21.6567 25.6933 12.537 11.6475 10.4347 14.0473 9.96071 9.84114 8.57908 7.79394 8.93607 7.48844 7.38592 3.74413
threshold=64.250553257806985 1.1888696975627615 -0.28309725646462053 60.719269767050619 35.664999999999061 0.68867128547439627 1.1723504254494312 54.500190468046021 37.034930301066332 0.23484978024858616 0.88610988255361589 -1.2704257101079972 -0.79543175209449546 1.2476820357290703 0.93190135453499379 57.139620776928879 42.55429377596186 472.50357142857212 1.7851973170156523 0.2950415636376103 0.15102856175803761 45.847636824459201 0.9885706647991489 71.020613963457478 -0.31926132520022071
decision_type=2 2 2 2 2 2 2 2 2 2 2 2 2 2 2 2 2 2 2 2 2 2 2 2 2
left_child=1 2 7 20 19 -5 23 -1 17 11 -11 12 -10 14 -6 16 -13 -3 22 -4 21 -2 -12 -7 -18
right_child=3 8 4 5 13 6 -8 -9 9 10 18 15 -14 -15 -16 -17 24 -19 -20 -21 -22 -23 -24 -25 -26
leaf_value=-0.066591877239389918 0.034897333040916467 -0.039325076444633712 -0.034588095005144384 -0.023494720021122531 -0.0073932033828364267 0.0098495279862332238 -0.022843407178549584 -0.028181317467064974 0.021102063886785004 -0.050179697734262257 0.0073144660747994326 0.037529028117147124 -0.040416767844486265 -0.020006603134498768 0.027716242026181299 0.044302697131908174 0.012819927615804593 -0.0018228058340006008 0.022159925447266915 -0.0043770533718810881 0.04695803861940915 0.00014631382629433308 -0.022344851275257784 0.041201160433602842 -0.0098469373489179432
leaf_weight=45.029182076454163 44.013690710067749 44.012150511145592 77.265487000346184 58.132519885897636 46.739764600992203 57.953916996717453 42.07718214392662 70.855877727270126 38.463041722774506 40.340535178780556 46.523130625486374 50.936483934521675 44.149752080440521 44.813236474990845 74.116697832942009 48.224478825926781 42.896572098135948 42.181873336434364 43.174835786223412 45.598575979471207 38.203597694635391 46.056931361556053 57.948647022247314 37.860207721590996 45.502917110919952
leaf_count=188 194 183 323 243 197 246 177 296 164 167 198 219 184 188 318 210 183 177 184 192 167 197 242 165 192
internal_value=-0.00359681 -0.00814458 -0.0174981 0.00969751 -0.00717976 -0.00101798 0.00845701 -0.04314 -0.00119118 0.00253853 -0.0107645 0.011806 -0.0117137 0.00483816 0.0141073 0.0221932 0.0145007 -0.0209781 3.34783e-05 -0.0233723 0.0260841 0.0171796 -0.00910862 0.0222719 0.00115824
internal_weight=1273.07 948.773 404.419 324.298 288.534 196.024 137.891 115.885 544.354 458.16 187.987 270.173 82.6128 165.67 120.856 187.56 139.336 86.194 147.647 122.864 128.274 90.0706 104.472 95.8141 88.3995
internal_count=5394 4005 1702 1389 1218 831 588 484 2303 1943 791 1152 348 703 515 804 594 360 624 515 558 391 440 411 375
is_linear=0
shrinkage=0.0552974


Tree=12
num_leaves=24
num_cat=0
split_feature=1 4 9 25 5 10 15 15 9 10 1 9 7 11 15 10 12 4 11 16 7 29 6
split_gain=32.8643 30.2343 27.7576 15.4462 13.4832 10.9661 18.1934 10.5383 10.5048 10.3039 10.254 9.50627 9.23653 9.01925 8.2506 11.4314 8.80151 26.808 11.0865 7.04955 6.31141 5.59304 2.85152
threshold=1.6426667096486771 0.25645831460261115 31.566454263359066 60.719269767050619 0.95438435152151713 0.78922360826463389 0.82560036316476437 0.45811282840234108 53.142171476847508 0.27494784369712783 0.55835956051071289 68.812539585694836 298.6789285714288 1.2111424206195587 -1.1961637388072719 0.21659511695229663 22.56986034546183 -0.33189651957475691 0.95884206594369448 18.557626037369225 377.61750000000012 0.034452644963167696 0.96058369889958606
decision_type=2 2 2 2 2 2 2 2 2 2 2 2 2 2 2 2 2 2 2 2 2 2 2
left_child=1 2 13 19 8 6 -5 -3 9 -4 14 -7 -9 -1 -6 -16 18 -18 -17 -2 -14 -10 -13
right_child=3 7 4 5 10 11 -8 12 21 -11 -12 22 20 -15 15 16 17 -19 -20 -21 -22 -23 -24
leaf_value=-0.050668180957144607 0.042422087346677767 -0.0053709720934967797 0.0024330596188725053 0.019940175497414135 0.022573397766773719 -0.0027638180723525297 -0.023982414195164985 -0.04622058762583714 0.017948698518216805 -0.031239487009306711 0.030144023931799539 0.017020813857945377 -0.0036172291278157654 -0.013915593921259123 -0.022199740092558373 0.015722234921626516 -0.0028234204131240941 0.054015168162449029 -0.02364766805639389 0.0163940651187344 -0.034756822159854511 -0.0079804163963975126 0.038317545178517869
leaf_weight=39.448413878679276 55.684729397296906 59.239475473761559 42.755787789821625 45.392847388982773 64.955187857151031 52.618652045726776 77.441299721598625 78.02812784910202 50.303497686982155 77.457848027348518 58.793094962835312 39.270670503377914 39.291456878185272 42.117668837308884 53.044236555695534 38.450834572315216 72.382561922073364 38.551593154668808 49.608181297779083 74.506362736225128 39.951903939247131 50.583259627223015 38.31827574968338
leaf_count=166 246 249 182 194 277 223 324 323 215 324 256 168 166 176 223 164 306 168 208 322 166 214 166
internal_value=-0.00145308 -0.00725544 -0.00151224 0.0120882 0.00262172 0.00412363 -0.00770668 -0.0252313 -0.00819884 -0.0192311 0.00899661 0.0152865 -0.0327227 -0.0316947 0.00505637 0.000518559 0.00659971 0.0169502 -0.00640923 0.0275486 -0.0193856 0.00491659 0.0275709
internal_weight=1278.2 894.963 678.452 383.233 596.886 253.042 122.834 216.511 221.1 120.214 375.786 130.208 157.271 81.5661 316.993 252.037 198.993 110.934 88.059 130.191 79.2434 100.887 77.5889
internal_count=5426 3783 2879 1643 2537 1075 518 904 935 506 1602 557 655 342 1346 1069 846 474 372 568 332 429 334
is_linear=0
shrinkage=0.0552974


Tree=13
num_leaves=28
num_cat=0
split_feature=9 15 9 4 21 0 2 18 16 8 0 19 7 2 22 7 8 14 22 17 17 7 7 16 10 31 14
split_gain=22.2332 16.758 21.5509 14.11 21.2563 14.9441 14.0978 12.3803 11.8539 10.4821 21.1659 11.0187 11.8594 10.2483 13.0247 11.6509 9.8628 9.66098 10.5725 9.00228 8.01913 19.3321 6.72725 7.50575 6.53421 12.7923 4.55866
threshold=31.566454263359066 0.9060772655436008 67.226258814543527 0.019027293684777871 1.0000000180025095e-35 0.25873987856022135 43.793732479906616 -1.0000000180025095e-35 21.543242071239032 19.200729880090709 0.4577747968413593 10.959879990182724 291.22285714285687 47.131630302042353 0.12940952255126045 338.74107142857139 28.991438849574831 0.9712629441788968 0.12940952255126045 -1.1415141479074629 0.021723708731324901 353.14821428571412 292.9760714285722 22.421181762557442 0.35868468186140362 39.921479567487445 0.50144823146993656
decision_type=2 2 2 2 2 2 2 2 2 2 2 2 2 2 2 2 2 2 2 2 2 2 2 2 2 2 2
left_child=19 2 3 5 -5 13 -3 8 -6 10 -8 12 17 14 -2 24 -13 18 -11 -1 -14 -22 -9 -24 25 -15 -4
right_child=1 6 26 4 7 -7 9 22 -10 11 -12 16 20 15 -16 -17 -18 -19 -20 -21 21 -23 23 -25 -26 -27 -28
leaf_value=-0.010991835739907634 0.0095673117459454844 -0.039141475505344497 0.047515966511496609 -0.044214481034573559 0.038818950913188967 0.03448977319286628 -0.0072286403493260548 -0.026210158108882733 -0.0039848550885827547 -0.037602887499162289 0.042680896336410028 -0.0092740264488527947 0.017220305485074597 -0.0096228082747339232 -0.031079006695628436 0.039537096804309134 0.024317182510778815 -0.049405041585640345 -0.00027978873138787902 -0.047610244107729252 0.014207432128994555 -0.036637953735962327 0.014973486525542579 -0.017433443321874537 -0.010480023457102496 0.031610717321402935 0.020449512307904313
leaf_weight=41.201204061508179 49.563195645809174 38.061592638492584 37.892829567193985 39.438872814178467 38.91924524307251 62.441374391317368 72.999563246965408 50.580981642007828 39.372077837586403 41.287462636828423 39.81274650990963 57.734208881855011 40.628159329295158 39.873035743832588 46.137401476502419 37.724995657801628 49.038759931921959 39.393399626016617 52.28123527765274 40.666130930185318 43.559347450733185 47.222845464944839 44.247794583439827 42.414626017212868 51.961185023188591 53.202261328697205 38.669248208403587
leaf_count=173 210 159 166 165 168 269 309 213 166 173 172 244 175 169 192 167 210 164 223 172 186 196 190 178 220 231 166
internal_value=-0.0013743 0.000535741 0.00630661 0.00275483 -0.00707406 0.0101107 -0.00689351 -0.000239897 0.0172586 -0.00434022 0.0103896 -0.00882658 -0.0148804 0.00462226 -0.0100018 0.0122918 0.00612826 -0.0265099 -0.0168103 -0.0291848 -0.00309727 -0.0122156 -0.0102401 -0.000887067 0.00516053 0.0139123 0.0338563
internal_weight=1276.33 1194.46 672.439 595.877 254.974 340.903 522.019 215.535 78.2913 483.958 112.812 371.145 264.372 278.462 95.7006 182.761 106.773 132.962 93.5687 81.8673 131.41 90.7822 137.243 86.6624 145.036 93.0753 76.5621
internal_count=5426 5081 2870 2538 1080 1458 2211 915 334 2052 481 1571 1117 1189 402 787 454 560 396 345 557 382 581 368 620 400 332
is_linear=0
shrinkage=0.0552974


Tree=14
num_leaves=24
num_cat=0
split_feature=1 13 0 0 14 9 25 0 13 2 17 19 8 11 2 1 1 28 17 0 16 24 13
split_gain=28.1867 14.2745 39.6469 15.677 15.5764 13.9639 13.0821 16.9591 11.1082 15.3106 10.5055 10.4738 9.92494 9.79255 7.6263 8.40595 7.28722 6.95299 6.92762 6.16162 6.06373 5.5983 5.16716
threshold=1.6426667096486771 52.996731059320908 0.24513290227534681 0.34471384250809317 0.91632062082739341 31.566454263359066 60.719269767050619 0.1408896002112914 45.918065440846611 60.717105507240298 0.099823342257876493 10.745446239259257 21.011477835613032 0.90119475185961406 66.804694610198709 2.3790655267519671 0.41912996760828941 44.645000000000444 -1.1415141479074629 -1.2704257101079972 18.557626037369225 1.0000000180025095e-35 39.334818146199886
decision_type=2 2 2 2 2 2 2 2 2 2 2 2 2 2 2 2 2 2 2 2 2 2 2
left_child=1 2 5 16 13 18 20 -8 9 17 21 -6 -9 -5 15 -14 -3 22 -1 -19 -2 -10 -7
right_child=6 3 -4 4 11 8 7 12 10 -11 -12 -13 14 -15 -16 -17 -18 19 -20 -21 -22 -23 -24
leaf_value=-0.011884329937147296 0.039437151248029698 -0.046178563574045824 0.036811853337590246 0.025174281990306691 -0.042636362731966276 -0.030512600121626314 -0.028867269327872053 0.031424781926833949 -0.038580020858350675 0.027508907449380584 0.0063259804801690479 -0.007505757410723673 0.012214753361264754 -0.0073512772529504694 0.017400723546384951 -0.021198468684260213 -0.018986615896914947 -0.011640101568274757 -0.044363871465398101 0.014343061758778487 0.015203009495949929 -0.01108185139317135 -0.0022424249457397038
leaf_weight=40.548761069774628 55.097936794161797 55.72141370177269 72.563957497477531 51.866727948188782 43.570179179310799 39.197040721774101 40.123366683721542 50.732990175485611 50.299246177077293 63.541742891073227 44.811482802033424 63.511696144938469 39.940182626247406 61.27098847925663 68.659413397312164 53.16290220618248 65.970729544758797 43.684249952435493 39.637570813298225 75.531074434518814 74.258907854557037 41.183207228779793 39.50306224822998
leaf_count=170 246 233 314 222 181 164 168 219 211 277 191 267 170 258 296 222 277 184 169 323 322 174 168
internal_value=-0.00130081 -0.00668136 -0.0011681 -0.0155512 -0.00674383 -0.00695215 0.0112612 0.00393602 -0.00270415 0.00396075 -0.0154848 -0.0218285 0.0101614 0.00753749 0.00346057 -0.006825 -0.0314603 -0.00360688 -0.0279543 0.00478678 0.0255469 -0.0262214 -0.0163399
internal_weight=1274.39 892.413 550.501 341.912 220.22 477.937 381.976 252.619 397.751 261.457 136.294 107.082 212.495 113.138 161.762 93.1031 121.692 197.915 80.1863 119.215 129.357 91.4825 78.7001
internal_count=5426 3783 2345 1438 928 2031 1643 1075 1692 1116 576 448 907 480 688 392 510 839 339 507 568 385 332
is_linear=0
shrinkage=0.0552974


Tree=15
num_leaves=26
num_cat=0
split_feature=1 3 1 2 18 12 6 15 18 18 20 11 3 0 5 0 5 31 3 27 9 9 5 15 26
split_gain=25.2187 14.1734 15.9887 19.0659 24.4635 22.5951 15.8841 12.1023 14.4697 16.7247 12.7399 14.0669 11.3948 12.2183 13.4708 11.3343 18.1111 10.7477 10.6667 13.7457 8.95319 8.10194 7.68532 6.10179 3.91756
threshold=1.6426667096486771 82.8167857142857 1.3087556452526796 47.131630302042353 1.0000000180025095e-35 21.363619549007314 1.0702203654409252 0.47848535038328494 1.0000000180025095e-35 0.7694208842938135 1.0439323419230335 0.91682933696043611 96.41857142857161 0.31316514714682114 1.4304101320019618 -1.2704257101079972 1.1222827116356278 51.656934039913821 147.05749999999981 -0.5296790608863019 49.953772823215132 66.853974931244451 0.86880657865915711 -0.51532852828266396 -0.032781044966251331
decision_type=2 2 2 2 2 2 2 2 2 2 2 2 2 2 2 2 2 2 2 2 2 2 2 2 2
left_child=1 6 3 4 18 12 22 21 10 -10 11 -9 -5 -14 -15 -7 20 -6 -3 -20 -17 24 -1 -18 -2
right_child=7 2 -4 5 17 15 -8 8 9 -11 -12 -13 13 14 -16 16 23 -19 19 -21 -22 -23 -24 -25 -26
leaf_value=0.0015319577137836286 0.027972588059351752 -0.049790580291074457 -0.034305114508911577 -0.033900398665516536 0.023933356813658723 -0.010622093598372 -0.049191704936766632 0.023587748511867304 0.04017599029002572 -0.0035207777210534783 -0.031679281505529309 -0.015179880423636945 -0.024924087865792317 0.032005225821342062 -0.0077728944740105537 -0.012062637016251734 0.053268438938062289 -0.013822349709130669 0.0051886958060540058 -0.03722772694048597 0.019997276468493655 0.045930893900116801 -0.028421531322485937 0.026661379641111069 0.0030935010075654567
leaf_weight=66.532336860895157 37.058598279953003 47.222109660506248 46.734215691685677 42.335062503814697 54.262748271226883 40.224616572260857 44.795299589633942 54.181601077318192 57.111456602811813 49.698461011052132 43.94315430521965 59.768323481082916 47.1759372651577 44.224601224064827 62.032901793718338 50.673945859074593 41.609048768877983 39.4394870698452 43.195368140935898 49.872167617082596 55.232237547636032 39.177890792489052 42.569315820932388 72.974246710538864 40.18514159321785
leaf_count=282 165 198 197 178 232 170 187 233 250 211 184 254 199 190 261 215 183 166 183 208 237 174 180 317 172
internal_value=-0.00123104 -0.00632287 -0.00313405 -0.00101056 -0.0138353 0.00556379 -0.0215692 0.0106657 0.00412788 0.0198169 -0.00649066 0.00323236 -0.00861273 -0.00160389 0.00877445 0.0162205 0.0211494 0.00798112 -0.028436 -0.0175502 0.00466477 0.0255057 -0.0101783 0.036363 0.015091
internal_weight=1272.23 891.106 737.209 690.474 233.992 456.483 153.897 381.125 264.703 106.81 157.893 113.95 195.769 153.433 106.258 260.714 220.489 93.7022 140.29 93.0675 105.906 116.422 109.102 114.583 77.2437
internal_count=5426 3783 3134 2937 987 1950 649 1643 1132 461 671 487 828 650 451 1122 952 398 589 391 452 511 462 500 337
is_linear=0
shrinkage=0.0552974


Tree=16
num_leaves=27
num_cat=0
split_feature=1 4 2 3 9 15 2 4 3 9 25 30 30 23 21 15 12 2 3 28 25 3 6 15 16 25
split_gain=22.5706 24.2853 22.088 22.8909 14.0297 15.9884 12.5798 12.4788 11.4588 17.7452 11.4468 13.9512 11.3536 10.0133 9.21175 8.7822 8.54452 7.84623 7.17994 7.02603 6.64341 6.03579 11.0919 5.73263 5.23756 2.63501
threshold=1.6426667096486771 0.25645831460261115 64.250553257806985 84.386428571428453 31.566454263359066 -1.1961637388072719 43.427749809484688 -0.52052375950545882 111.23321428571451 56.027395206990754 60.719269767050619 1.0000000180025095e-35 0.65450849718747384 50.043535469498494 1.0000000180025095e-35 0.64468229193922733 12.279986616933234 55.027058384207201 93.954642857142986 60.815000000000516 49.932939850873467 80.077142857142874 0.96058369889958606 0.13669476572551226 20.196983535916704 80.77910776831466
decision_type=2 2 2 2 2 2 2 2 2 2 2 2 2 2 2 2 2 2 2 2 2 2 2 2 2 2
left_child=1 2 3 23 -5 19 20 -8 15 -10 18 16 14 -4 17 -3 -12 -9 -2 -6 -7 -13 -23 -1 -20 -17
right_child=10 8 13 4 5 6 7 12 9 -11 11 21 -14 -15 -16 25 -18 -19 24 -21 -22 22 -24 -25 -26 -27
leaf_value=-0.043442264255336149 0.0078524642569246603 -0.012103949299676392 0.047059583360385418 -0.022611568107876658 0.0099668405281454816 -0.035743600902958673 0.034439420669261853 0.010108988501107247 -0.034741689783479322 0.01287099096294719 0.00060684387851099282 0.010409267128057788 -0.024105382278661894 0.00852525839131206 0.021959757134568807 -0.03389883555328721 0.032728923681333302 -0.02029322696305708 0.048883202764798878 0.043137481969890458 -0.0062220843389676084 -0.036874826402384521 -0.00050750144882185971 -0.015022094253328084 0.01972883736290152 -0.0542961483362829
leaf_weight=48.032591253519058 52.720910087227821 38.940442726016045 37.233823284506798 71.751139104366302 39.446803241968155 39.247279360890388 37.49005851149559 55.815343201160431 42.171074226498604 54.247704803943634 44.318974554538727 40.988976716995239 46.448587954044342 45.754007294774055 70.382513478398323 40.004710972309113 58.521708518266678 47.798029392957687 38.052298858761787 38.458363801240921 56.819126039743423 41.17489767074585 66.905043914914131 39.721646398305893 37.634681418538094 39.850209340453148
leaf_count=203 231 164 165 304 169 164 163 239 176 230 190 175 197 195 304 168 255 202 173 166 240 172 283 168 164 166
internal_value=-0.00116604 -0.00598648 -0.000823602 -0.00457391 -2.96731e-05 0.00372999 -0.00125521 0.00509616 -0.0221453 -0.00798094 0.0101013 0.00324962 7.41806e-05 0.0258264 0.00655897 -0.0336358 0.0188864 -0.00389408 0.0235236 0.0263533 -0.0183055 -0.00754315 -0.0144002 -0.0305783 0.0344287 -0.0441303
internal_weight=1269.93 889.613 674.399 591.411 503.657 431.906 354.001 257.935 215.214 96.4188 380.317 251.91 220.444 82.9878 173.996 118.795 102.841 103.613 128.408 77.9052 96.0664 149.069 108.08 87.7542 75.687 79.8549
internal_count=5426 3783 2879 2519 2148 1844 1509 1105 904 406 1643 1075 942 360 745 498 445 441 568 335 404 630 455 371 337 334
is_linear=0
shrinkage=0.0552974


Tree=17
num_leaves=26
num_cat=0
split_feature=1 4 0 10 10 26 10 0 5 0 11 15 20 30 5 18 7 15 0 7 12 6 24 27 27
split_gain=20.1996 21.7529 25.3616 27.015 12.6118 15.3428 12.907 17.5195 11.6137 12.646 11.1702 10.4827 13.3856 10.4889 15.0236 9.961 9.7201 8.43178 13.3745 14.4998 8.06861 7.98503 7.63787 7.5727 2.05635
threshold=1.6426667096486771 0.25645831460261115 0.3043247791370885 0.65825516421552177 0.62098339492176835 0.059989623718781367 0.35868468186140362 -1.2704257101079972 1.3600248476687211 -0.56563593521612987 0.93310174740913399 0.47848535038328494 1.0448412951119443 1.0000000180025095e-35 1.1814519607087595 1.0000000180025095e-35 301.03035714285716 0.21343135721059434 0.64336072682703593 292.9760714285722 39.153352447503302 0.85056992741468063 -0.12940952255126037 0.94717767400548081 -1.1589201834039604
decision_type=2 2 2 2 2 2 2 2 2 2 2 2 2 2 2 2 2 2 2 2 2 2 2 2 2
left_child=1 2 4 -4 5 6 7 20 9 -9 -5 21 13 15 -15 -13 -7 -3 24 -20 -1 -2 -23 -11 -19
right_child=11 17 3 10 -6 16 -8 8 -10 23 -12 12 -14 14 -16 -17 -18 18 19 -21 -22 22 -24 -25 -26
leaf_value=-0.033373596229536645 0.0025086823660625452 -0.00016432219949351291 0.0547580343759414 0.022904727397979448 -0.028056535519548752 0.036073358721236598 -0.029374303953172171 -0.027631741897634388 0.029131819819585379 -0.0045923851860172494 -0.012651628153352176 0.0034304382751546955 -0.023953034249540262 0.017292374284487183 -0.020142331504846313 0.040543071317782585 0.00034563306569001888 -0.034110704264599272 -0.035882654252695774 0.0088109063145219678 -0.0019523324932490061 0.050433453132962693 0.015823883013904087 0.027939163970896512 -0.052223958993102962
leaf_weight=63.599406093358994 37.486048996448517 46.437127947807312 45.155133873224258 50.268106684088707 71.815196618437767 42.833583369851112 71.26260156929493 39.264751851558685 52.620756730437279 48.294231340289116 57.461973860859871 40.269297391176224 44.735070943832397 67.172958299517632 63.284340471029282 48.579281270503998 50.407373294234276 40.213232487440109 40.957136318087578 47.463532462716103 40.91892121732235 39.781152874231339 38.216097742319107 39.282507374882698 39.559024780988693
leaf_count=267 165 196 198 216 303 186 301 169 229 207 243 172 189 289 267 215 216 169 172 201 173 178 168 171 166
internal_value=-0.00110359 -0.00566839 -0.000779253 0.0189933 -0.00659742 -0.00314821 -0.00838826 -0.00310256 0.00736586 -0.00166736 0.00395242 0.00956669 0.0034858 0.00910909 -0.000845915 0.0237326 0.0167689 -0.020984 -0.0267458 -0.0119189 -0.0210661 0.0234455 0.0335166 0.00998001 -0.0431338
internal_weight=1267.34 887.815 673.185 152.885 520.299 448.484 355.243 283.981 179.462 126.841 107.73 379.524 264.041 219.306 130.457 88.8486 93.241 214.63 168.193 88.4207 104.518 115.483 77.9973 87.5767 79.7723
internal_count=5426 3783 2879 657 2222 1919 1517 1216 776 547 459 1643 1132 943 556 387 402 904 708 373 440 511 346 378 335
is_linear=0
shrinkage=0.0552974


Tree=18
num_leaves=24
num_cat=0
split_feature=0 14 10 16 0 14 2 4 8 10 17 0 2 6 22 8 2 1 27 7 27 4 11
split_gain=20.504 34.4473 24.2884 19.6959 16.3241 19.268 24.2591 16.572 15.9515 15.8374 15.7094 15.4819 12.332 14.5894 11.3566 10.7665 9.76315 9.27229 7.52597 6.71678 5.52441 15.6841 3.81009
threshold=0.64336072682703593 0.94378375803089176 0.66554734421077588 27.149833392073496 -0.29573700084156712 -0.46370514676237201 37.034930301066332 -0.75113477087852509 37.983796777750435 0.19466077664517142 0.30432742517179096 -1.2220911924509967 48.724009453002331 1.1322310140582665 0.12940952255126045 26.349332674800277 56.409359946332053 1.568059768548036 -1.6425367157489343 303.4292857142853 -0.5296790608863019 0.087437811024787454 0.7989872956771632
decision_type=2 2 2 2 2 2 2 2 2 2 2 2 2 2 2 2 2 2 2 2 2 2 2
left_child=2 3 4 -2 5 6 -1 -8 12 -6 18 -9 -3 -14 -7 17 -13 20 -4 -12 21 -11 -17
right_child=1 8 10 -5 9 14 7 11 -10 15 19 16 13 -15 -16 22 -18 -19 -20 -21 -22 -23 -24
leaf_value=-0.03555379018468327 0.053995612565327464 -0.021215123671881355 -0.023779282792208829 0.0096524078976170987 0.03784065218542821 -0.042435785911359887 0.031470383696853961 -0.029966979701054153 -0.029380114896199613 0.034901838944320661 -0.020923049462006231 -0.0060869123250819005 -0.0013454405016927805 0.039511919948801148 -0.0088249801419165962 -0.025639386702568229 0.02860247248788151 0.02859829348491769 0.0075422347559691979 -0.046677983734474911 -0.014285846676566153 -0.012436514254528764 -0.0029252074762939799
leaf_weight=48.147443875670433 64.338448509573936 39.272827237844467 39.568782687187195 58.153904795646667 45.802734136581421 66.648116827011108 62.940300345420837 43.340364158153534 55.210482716560364 40.611974492669106 56.572385877370834 54.721209868788719 67.602747336030006 43.597992554306984 56.868514254689217 38.988719195127487 44.679584622383118 58.91201651096344 56.32017257809639 69.159521281719208 41.767412930727005 44.335336208343506 53.168730676174164
leaf_count=203 284 165 167 249 202 282 273 183 232 176 240 237 289 189 245 166 198 259 241 288 178 187 227
internal_value=-0.00209502 0.00976677 -0.00631819 0.0329494 -0.00127119 -0.00908277 -0.000365103 0.00790151 -0.00403773 0.00783457 -0.0222611 -0.00249744 0.0052643 0.0146762 -0.0269684 0.00286179 0.00948792 0.0105273 -0.00541005 -0.035109 0.00209562 0.010177 -0.0125503
internal_weight=1250.73 328.176 922.553 122.492 700.932 377.346 253.829 205.681 205.684 323.587 221.621 142.741 150.474 111.201 123.517 277.784 99.4008 185.627 95.889 125.732 126.715 84.9473 92.1574
internal_count=5360 1408 3952 533 3016 1621 1094 891 875 1395 936 618 643 478 527 1193 435 800 408 528 541 363 393
is_linear=0
shrinkage=0.0552974


Tree=19
num_leaves=24
num_cat=0
split_feature=2 4 8 2 3 6 6 4 25 24 7 6 6 3 2 8 4 30 7 7 7 25 23
split_gain=17.96 21.4184 19.5964 16.5783 19.0804 18.2227 17.6207 16.9254 16.9174 14.6284 13.5673 11.0134 11.038 10.8436 10.2292 10.1043 10.0367 9.78116 9.50683 8.9633 9.39605 8.61503 6.70985
threshold=48.486404673501553 -0.63957201948411802 37.983796777750435 64.250553257806985 97.435000000000272 0.90969952349734351 0.68867128547439627 0.019027293684777871 73.304919198323972 0.37940952255126048 297.79107142857112 0.90079958571879681 1.1036616840385651 109.30035714285741 56.067126135987188 43.578946690602642 0.20356140010099014 1.0000000180025095e-35 417.56107142857144 553.96035714285756 356.10000000000053 85.967294447319844 50.475631280666853
decision_type=2 2 2 2 2 2 2 2 2 2 2 2 2 2 2 2 2 2 2 2 2 2 2
left_child=9 -2 3 4 14 7 8 -6 -5 19 15 -8 -13 -7 -3 -4 -15 -16 -11 20 -1 -18 -19
right_child=1 2 10 6 5 13 11 -9 -10 18 -12 12 -14 16 17 -17 21 22 -20 -21 -22 -23 -24
leaf_value=-0.014913013362395909 0.04114233593064337 -0.03898473189469831 -0.053721055610898912 0.015590782772084227 0.013269317518951659 -0.010148215633181799 0.041833959735915277 -0.027116252822680161 -0.031099967661766061 0.018524677068513455 0.003444393467669326 -0.0079923067108338599 0.033360311043018967 0.037684693770978515 0.0070936198205065366 -0.014689649860755629 -0.0035232467786922754 -0.0042689148807963104 -0.016053499125115122 -0.0007173328630337663 -0.043059203514874106 0.0286743090187845 -0.034206047084523496
leaf_weight=69.25767457485199 39.822727233171463 44.657931506633759 39.666877806186676 57.764022156596184 53.314580366015434 40.00418446958065 74.469461292028427 77.08406063914299 39.681411445140839 54.353142112493515 46.643230304121971 40.192447274923325 37.995420098304749 70.470512524247169 66.066801354289055 41.287997975945473 57.582450374960899 41.60080087184906 43.3228540122509 41.93078725039959 76.296573683619499 44.780682653188705 50.543432906270027
leaf_count=298 176 190 167 253 231 171 327 325 166 233 198 175 169 311 281 175 247 177 183 178 322 194 213
internal_value=-0.00198274 0.0016229 -8.80007e-05 0.00313406 -0.00226136 0.00567637 0.0149165 -0.0105677 -0.00340391 -0.0141653 -0.0201769 0.0266349 0.0121246 0.0156466 -0.015696 -0.0338515 0.0216545 -0.00908945 0.00313745 -0.0232019 -0.0296885 0.01058 -0.0207033
internal_weight=1248.79 963.629 923.806 796.208 546.105 343.236 250.103 130.399 97.4454 285.161 127.598 152.657 78.1879 212.838 202.869 80.9549 172.834 158.211 97.676 187.485 145.554 102.363 92.1442
internal_count=5360 4146 3970 3430 2340 1479 1090 556 419 1214 540 671 344 923 861 342 752 671 416 798 620 441 390
is_linear=0
shrinkage=0.0552974


Tree=20
num_leaves=24
num_cat=0
split_feature=0 14 10 16 0 3 10 2 14 4 17 22 22 8 18 1 20 18 17 1 7 0 12
split_gain=18.1264 30.7183 21.5257 17.6382 14.9608 19.7551 15.2319 14.5844 16.398 14.915 13.8231 13.7037 12.8411 9.02639 9.02303 13.5459 7.73308 7.3038 7.05487 6.97541 6.19899 6.08351 4.37423
threshold=0.64336072682703593 0.94378375803089176 0.66554734421077588 27.149833392073496 -0.18262233982775375 79.246785714285991 0.37187089331417034 48.131086663077809 -0.33169238033857734 -1.0833933151147945 0.30432742517179096 0.12940952255126045 -0.25881904510252113 29.923329027339445 1.0000000180025095e-35 1.1039983591544902 1.0037642910118809 -1.0000000180025095e-35 -0.24239196791612236 -0.099342972517146841 303.4292857142853 0.18654801155670866 25.319132777152749
decision_type=2 2 2 2 2 2 2 2 2 2 2 2 2 2 2 2 2 2 2 2 2 2 2
left_child=2 3 4 -2 5 -1 22 9 19 -7 21 16 -11 14 15 -8 -3 -13 -10 -9 -12 -4 -6
right_child=1 11 10 -5 6 7 13 8 18 12 20 17 -14 -15 -16 -17 -18 -19 -20 -21 -22 -23 -24
leaf_value=-0.040298643977443406 0.051298937909232019 -0.0091993474954606257 -0.020374173314309341 0.0092222078873035618 0.017228959626250349 0.0095741825797860496 -0.0014893969010144122 0.0049575131127863213 0.0019962377499981657 -0.0058375629138429719 -0.019324283442936317 -0.034750016026908359 -0.045422561068142429 -0.021074201727389438 -0.0086544048384353568 0.042699599834848008 0.021697702081149836 -0.0048032559708682731 -0.031196095869216532 0.029173344732480459 -0.044111331124995469 0.0075263290023055525 0.042669821411752691
leaf_weight=49.693473592400551 63.784542664885521 39.056671530008316 43.106926932930946 58.022168681025505 47.176720798015594 45.038759231567383 45.791197896003723 75.934450477361679 38.00415912270546 43.668601647019386 56.398399546742439 45.281748682260513 58.314814656972885 45.698235496878624 64.108696579933167 38.79732957482338 66.009229674935341 54.881999686360359 39.460216656327248 69.628889366984367 68.84264774620533 52.550731435418129 37.007959708571434
leaf_count=213 284 166 183 249 206 193 195 327 165 187 240 189 247 194 276 170 285 235 167 312 288 225 164
internal_value=-0.00187677 0.00929521 -0.00585502 0.0312625 -0.00109389 -0.00768595 0.0088324 -0.00328434 0.00561865 -0.0167875 -0.0208875 -0.00374085 -0.0284849 0.000322663 0.00692545 0.0187678 0.0101675 -0.0183608 -0.0148678 0.016554 -0.0329682 -0.00506518 0.0284389
internal_weight=1246.26 327.036 919.222 121.807 698.324 419.743 278.58 370.05 223.028 147.022 220.899 205.23 101.983 194.395 148.697 84.5885 105.066 100.164 77.4644 145.563 125.241 95.6577 84.1847
internal_count=5360 1408 3952 533 3016 1811 1205 1598 971 627 936 875 434 835 641 365 451 424 332 639 528 408 370
is_linear=0
shrinkage=0.0552974


Tree=21
num_leaves=26
num_cat=0
split_feature=21 4 4 8 1 23 19 11 17 7 15 5 9 7 7 6 8 8 25 3 3 13 5 25 7
split_gain=12.5043 44.5398 31.7368 13.8333 15.3451 13.7755 13.144 12.1658 11.5777 11.3591 10.8482 15.3865 10.8358 9.37873 18.4693 10.5751 8.857 7.75924 9.06154 7.67786 10.374 7.40693 7.26537 4.75221 4.13031
threshold=1.0000000180025095e-35 0.077180175881144522 0.042900640521454224 37.983796777750435 1.6426667096486771 69.48975894899489 9.6055938461530648 0.98345435347459531 -0.54559038605734289 424.68714285714231 0.44102116122905555 1.0739931205572899 70.832918961667829 249.8839285714291 231.10392857142884 0.8579937092803035 24.41404541246866 27.69745477590352 39.591178300964948 113.43035714285675 144.69964285714224 56.404188535189277 2.3111049686121783 17.327422768275984 304.22142857142825
decision_type=2 2 2 2 2 2 2 2 2 2 2 2 2 2 2 2 2 2 2 2 2 2 2 2 2
left_child=1 5 7 4 13 6 8 -2 9 22 21 24 -5 14 -4 -15 -13 18 -10 -17 -21 -6 23 -1 -12
right_child=2 -3 3 12 10 -7 -8 -9 17 -11 11 16 -14 15 -16 19 -18 -19 -20 20 -22 -23 -24 -25 -26
leaf_value=0.0098220640816231476 0.053653751376063819 -0.065021723329564879 -0.016206038935832182 -0.040500553572935208 0.013161097034354169 -0.025355147499462372 0.031083745324785531 0.012615928874299248 -0.022356742793178865 -0.018181275580303902 -0.0012285954569787197 0.037212538202291125 -0.0042454576645681872 -0.029491388525140955 0.034933883731013866 -0.018629138764710788 0.0039907659018581275 -0.028061928760496145 0.013830871800329764 0.028083350631081735 -0.011896975576139099 0.045472456396299467 -0.0012308031219268514 0.036317255631174591 -0.026385923002890978
leaf_weight=37.634285524487495 45.486886367201805 39.080124348402023 43.760243639349937 44.691317066550255 49.106754139065742 74.712108626961708 38.410406529903412 42.725425347685814 39.094372510910034 43.241205707192421 38.158991649746895 42.5946114808321 57.207538813352585 75.314895361661911 41.848951831459999 59.971492782235146 57.275031909346581 67.855807930231094 45.175041049718857 38.313600122928619 40.288485318422318 38.752915382385254 55.917154252529144 46.02905960381031 41.454615905880928
leaf_count=165 204 167 185 188 220 317 167 187 167 186 165 188 243 318 181 255 246 292 196 165 170 172 238 202 176
internal_value=-0.00177627 -0.00868468 0.00266849 -0.00144134 0.00192717 -0.00374011 0.000594723 0.0337772 -0.00291395 0.00644753 0.011553 0.00375521 -0.0201646 -0.00665925 0.0087589 -0.0128517 0.0181837 -0.0141742 -0.00296762 -0.00378055 0.00755921 0.0274459 0.0141247 0.024421 -0.0143301
internal_weight=1244.1 487.15 756.952 668.739 566.841 448.069 373.357 88.2123 334.947 182.822 267.343 179.483 101.899 299.498 85.6092 213.888 99.8696 152.125 84.2694 138.574 78.6021 87.8597 139.58 83.6633 79.6136
internal_count=5360 2097 3263 2872 2441 1930 1613 391 1446 791 1167 775 431 1274 366 908 434 655 363 590 335 392 605 367 341
is_linear=0
shrinkage=0.0552974


Tree=22
num_leaves=24
num_cat=0
split_feature=0 5 16 10 0 5 2 10 2 17 17 22 6 19 1 26 27 2 27 2 27 3 12
split_gain=15.6699 34.4474 23.7393 19.354 13.1594 27.1636 20.2336 13.5599 13.3997 13.6718 12.2975 12.11 11.5017 15.9851 10.5318 10.4445 10.2738 10.0403 6.69848 6.30821 5.69541 5.38312 3.93985
threshold=0.64336072682703593 1.4891576124562278 26.337225702883085 0.66554734421077588 -0.18262233982775375 0.99825082140365884 48.131086663077809 0.37187089331417034 56.067126135987188 -0.21202423683096547 0.30432742517179096 -0.25881904510252113 0.8579937092803035 7.1941018628507694 0.36044967214814433 0.067609527186196519 -1.4778071161854258 55.204214355562492 -1.6425367157489343 55.598570435910332 -0.8909017393682922 152.71250000000006 25.319132777152749
decision_type=2 2 2 2 2 2 2 2 2 2 2 2 2 2 2 2 2 2 2 2 2 2 2
left_child=3 2 -2 4 5 8 11 22 -1 -10 18 -7 -3 -14 17 16 -9 -8 -5 -15 -12 -13 -6
right_child=1 12 -4 10 7 6 14 15 9 -11 20 21 13 19 -16 -17 -18 -19 -20 -21 -22 -23 -24
leaf_value=-0.055395658193110972 0.065251887877611811 -0.027492977628848423 0.012984694751944107 -0.022118757224921258 0.016354447074412099 0.006338158599298825 0.022985924215067972 0.0062147062628457889 0.0037386297020002707 -0.039886423658599596 -0.020055870663984128 -0.041137622747068302 -0.024037048968944603 0.0025519187745683229 0.033417245459772281 0.018870438055452125 -0.024711435667868396 -0.012877517761826062 0.0075077189226498827 0.028298587929138877 -0.043818260149354679 -0.012409620176164537 0.040557507030998106
leaf_weight=38.822501540184021 43.902740120887756 49.34565244615078 66.582408934831619 39.344723269343376 47.064589768648148 55.334526851773262 45.015316799283028 68.646256998181343 47.098331913352013 40.430952861905098 66.846794992685318 41.054365575313568 47.79967600107193 66.87973864376545 61.876631423830986 62.953852921724319 62.191215753555298 49.905318140983582 56.063603326678276 51.200756222009659 57.784294649958611 38.793095663189888 36.783659726381302
leaf_count=169 199 208 289 167 206 237 195 297 205 171 284 174 203 286 280 272 266 214 241 223 244 166 164
internal_value=-0.00168232 0.00872685 0.0337861 -0.00538701 -0.000865588 -0.00705867 0.00220025 0.00845958 -0.0284473 -0.0164403 -0.0196697 -0.0134439 -0.00413913 0.00281223 0.0157094 0.000419826 -0.00847147 0.00413835 -0.00473273 0.0137345 -0.0310996 -0.0272054 0.0269983
internal_weight=1241.72 325.711 110.485 916.01 695.971 418.331 291.979 277.64 126.352 87.5293 220.039 135.182 215.226 165.88 156.797 193.791 130.837 94.9206 95.4083 118.08 124.631 79.8475 83.8482
internal_count=5360 1408 488 3952 3016 1811 1266 1205 545 376 936 577 920 712 689 835 563 409 408 509 528 340 370
is_linear=0
shrinkage=0.0552974


Tree=23
num_leaves=24
num_cat=0
split_feature=0 14 10 16 8 4 1 24 4 1 8 10 3 18 8 4 1 1 29 25 14 17 20
split_gain=14.0246 25.7931 17.5713 14.5018 11.765 10.0761 15.3081 15.4342 10.9507 12.8825 16.8248 12.2813 14.3929 11.396 10.1229 10.3012 9.81389 9.71155 8.59331 7.39012 6.79165 5.25731 4.6537
threshold=0.64336072682703593 0.94378375803089176 0.86095272959912017 27.149833392073496 37.983796777750435 -1.0833933151147945 -0.90062240249642034 -0.3794095225512602 -0.0048299732276196944 1.568059768548036 26.236945596385521 0.57484101065333582 93.954642857142986 1.0000000180025095e-35 28.55350941179714 -0.41362105078519079 -2.0393196783824279 1.8713133256491934 -0.022742664605307491 38.239529395309347 0.19199428005701738 0.43636359102303685 1.0430249688361728
decision_type=2 2 2 2 2 2 2 2 2 2 2 2 2 2 2 2 2 2 2 2 2 2 2
left_child=2 3 5 -2 17 -1 7 16 14 10 13 12 -11 20 19 -16 -7 22 -9 -8 -10 -4 -3
right_child=1 4 21 -5 -6 6 8 18 9 11 -12 -13 -14 -15 15 -17 -18 -19 -20 -21 -22 -23 -24
leaf_value=0.019315630762872796 0.046923464308346506 0.0036709871834899595 -0.015312191900991451 0.0085712984681863748 -0.025473934054222158 -0.050791804663383323 0.0062135388252266242 0.0098222022864236716 -0.0070011218006499334 -0.0031587483548850457 -0.043705653136542615 -0.011870784882388978 0.03819744699948318 -0.023637845053571433 0.016071481852732217 -0.02321652025104769 -0.015192176652087587 0.022140688720709067 -0.018224117557089206 0.035776399818121259 0.025021624078842251 -0.043120594448919636 -0.021431804584461187
leaf_weight=58.817621603608131 62.688503861427307 53.756609991192818 41.55382838845253 57.809800252318382 54.992690697312355 48.423932835459709 45.807839065790176 66.285189673304558 42.312415614724159 49.509729832410812 46.5397609770298 69.793325215578079 52.6916224360466 59.876258835196495 41.357489302754402 39.514220133423805 46.258647337555885 57.440058082342148 66.501369178295135 59.120217561721802 38.058991029858589 41.744790554046631 38.26220041513443
leaf_count=255 284 230 177 249 232 211 204 287 180 217 198 297 239 255 179 169 199 251 285 261 164 175 162
internal_value=-0.00159262 0.00826676 -0.0051006 0.0285314 -0.00367453 -0.00267035 -0.00435297 -0.0163906 0.000675318 -0.00496042 -0.0150089 0.00593906 0.0181423 -0.00544164 0.0115642 -0.00308393 -0.0334212 0.00434807 -0.0042273 0.0228831 0.00813095 -0.0292582 -0.00674825
internal_weight=1239.12 324.95 914.167 120.498 204.452 830.869 772.051 227.469 544.582 358.782 186.787 171.995 102.201 140.248 185.8 80.8717 94.6826 149.459 132.787 104.928 80.3714 83.2986 92.0188
internal_count=5360 1408 3952 533 875 3600 3345 982 2363 1550 797 753 456 599 813 348 410 643 572 465 344 352 392
is_linear=0
shrinkage=0.0552974


Tree=24
num_leaves=25
num_cat=0
split_feature=1 16 19 2 3 24 1 16 1 15 16 2 3 14 21 7 3 13 2 8 13 2 1 22
split_gain=18.5179 19.7208 15.1211 15.0908 14.9369 12.9724 15.9873 15.0514 11.8088 9.77713 9.36862 8.79315 7.54428 7.30741 13.634 9.18851 14.2312 12.4829 12.4839 7.25476 5.98285 5.32339 3.16579 3.11237
threshold=-0.38200533023767241 34.314364191511821 13.9778650520644 71.020613963457478 88.216785714285976 0.1294095225512602 -1.0443112779839945 13.611079032567567 -1.4543019421387691 0.59743752788389359 20.61966144004559 61.728166668005663 147.05749999999981 -0.70566052971343096 1.0000000180025095e-35 331.04785714285725 110.4185714285711 52.579319280665906 58.366208299957471 27.883148245356427 51.249359278286967 63.194001264080775 2.5148822173393208 1.0000000180025095e-35
decision_type=2 2 2 2 2 2 2 2 2 2 2 2 2 2 2 2 2 2 2 2 2 2 2 2
left_child=5 3 -3 4 9 8 7 -7 12 20 -9 -11 -1 -6 -15 16 21 -17 22 -10 -2 -16 -19 -14
right_child=1 2 -4 -5 13 6 -8 10 19 11 -12 -13 23 14 15 17 -18 18 -20 -21 -22 -23 -24 -25
leaf_value=-0.043896149316062269 -0.007666041866990189 -0.046701155309543517 0.000525526092256808 0.031243607309494343 0.028522983163607719 -0.014962732818792604 -0.02831193154319156 0.037829267340409277 0.0089104180775265631 -0.0028565108338893066 0.002119103265586229 -0.036245591372956708 -0.0068133106916837835 -0.01617799280559978 -0.0041776386795594781 0.028309661200682332 0.04871695165978504 0.020981932552041994 -0.02221194521365033 -0.020710383353309606 0.018908283630656483 0.02379799769727681 -0.00075580758524103917 -0.029007810341237717
leaf_weight=61.655060291290283 62.473840206861496 38.977251574397087 43.340468093752861 68.945490166544914 55.470498993992805 49.321775406599045 44.552620723843575 53.063091710209846 54.857704907655716 44.233572170138359 38.659823819994926 52.581141367554665 38.785382658243179 63.747173488140106 41.262758180499077 48.648306429386139 43.81270943582058 41.704210683703423 63.796878352761269 46.184214323759079 43.636939272284508 41.044881716370583 39.320644870400429 38.458566680550575
leaf_count=270 269 164 186 308 249 210 192 230 239 190 165 223 166 278 178 220 194 180 271 199 187 182 168 165
internal_value=-0.00123754 0.00375354 -0.0218031 0.00672425 0.00407897 -0.0105398 0.000417762 0.00954914 -0.0190268 -0.00831161 0.0227833 -0.0210019 -0.0294811 0.00981469 0.00709322 0.0117509 0.0233501 0.00417369 -0.00395768 -0.00464285 0.00324392 0.00978713 0.010396 -0.0179293
internal_weight=1218.54 792.997 82.3177 710.679 641.734 425.538 185.597 141.045 239.941 202.925 91.7229 96.8147 138.899 438.808 383.338 319.59 126.12 193.47 144.822 101.042 106.111 82.3076 81.0249 77.2439
internal_count=5283 3447 350 3097 2789 1836 797 605 1039 869 395 413 601 1920 1671 1393 554 839 619 438 456 360 348 331
is_linear=0
shrinkage=0.0552974


Tree=25
num_leaves=23
num_cat=0
split_feature=1 30 2 3 22 14 5 5 9 19 3 19 1 14 11 9 9 10 23 22 5 31
split_gain=16.6788 13.5046 13.6953 12.6211 22.4132 10.233 12.0812 9.41758 9.68724 11.8454 10.0061 13.2247 10.8784 8.60257 12.5554 15.83 8.00303 6.87411 8.69664 5.1213 4.73298 4.01779
threshold=-2.586882126132017 0.3090169943749474 70.744117810456217 130.71000000000006 1.0000000180025095e-35 -0.50348402685299598 1.3014520345356417 2.2738019220044063 47.097834601667735 5.8071136691077898 97.435000000000272 -4.4709807943042383 1.4496888629078943 0.23482470492683929 1.1347337610672119 52.016674073389375 33.612858150834114 0.83644151138528477 71.171166137994803 0.25881904510252091 1.779407428977529 64.044965732477223
decision_type=2 2 2 2 2 2 2 2 2 2 2 2 2 2 2 2 2 2 2 2 2 2
left_child=16 2 5 13 -5 6 -2 8 -7 10 12 -12 -10 14 15 -3 -1 18 -15 -8 -18 -11
right_child=1 3 -4 4 -6 7 19 -9 9 21 11 -13 -14 17 -16 -17 20 -19 -20 -21 -22 -23
leaf_value=-0.032647093314188802 -0.0067600769262216405 -0.015470635521509341 0.031968124938495393 -0.013579926287827983 0.039166584142987536 -0.019284264883355662 0.040198866712624862 -0.020238801256861536 0.0053063002936970744 0.033521034721031753 0.026895046664453054 -0.011668988895145459 -0.02749006864753098 -0.015172274567607268 -0.023892012864561982 0.026154331153195858 0.0047715066568139279 -0.0041226031354042207 -0.047066180932367752 0.014437144192461424 -0.02085365174582204 0.0098578067144664393
leaf_weight=66.24822972714901 44.58558364212513 49.510917589068413 57.831591188907623 52.331850796937943 45.830050304532051 51.30240635573864 49.865371450781822 61.954558938741684 61.896955415606499 51.903939858078957 69.08072292804718 44.247926533222198 60.942010059952736 61.320255056023598 57.317026570439339 63.04180483520031 46.750521719455719 50.942885503172874 45.48987227678299 45.02078016102314 40.900450900197029 38.122886940836906
leaf_count=287 195 215 259 226 204 222 222 265 267 227 306 190 259 264 247 278 203 219 193 197 173 165
internal_value=-0.00117144 0.00129153 0.00638946 -0.00632637 0.0110223 0.00382222 0.016853 -0.000315948 0.00295833 0.00647609 -1.9562e-05 0.0117992 -0.0109466 -0.0115399 -0.0028999 0.0078106 -0.0181642 -0.0208297 -0.0287964 0.0280008 -0.00719759 0.0235065
internal_weight=1216.44 1062.54 636.755 425.785 98.1619 578.923 139.472 439.451 377.497 326.194 236.168 113.329 122.839 327.623 169.87 112.553 153.899 157.753 106.81 94.8862 87.651 90.0268
internal_count=5283 4620 2774 1846 430 2515 614 1901 1636 1414 1022 496 526 1416 740 493 663 676 457 419 376 392
is_linear=0
shrinkage=0.0552974


Tree=26
num_leaves=25
num_cat=0
split_feature=0 25 16 18 31 0 7 1 8 16 17 8 3 24 11 7 6 11 16 1 12 0 14 3
split_gain=16.4907 19.2417 19.0019 14.8268 21.3798 20.4736 20.0587 14.4351 14.406 15.1222 13.8622 13.3071 12.8598 14.2763 12.2788 12.2024 11.5782 9.17775 8.94297 8.78459 8.48187 7.0977 6.82228 4.19524
threshold=-0.022326088898311221 60.719269767050619 34.314364191511821 -0.76942088429381317 52.589071015465088 0.55668746158474847 354.37321428571471 0.38757263197036768 19.200729880090709 18.985937555291127 0.39623925579000968 21.508495471817287 84.862857142857024 0.25881904510252057 1.0922412551584579 370.01749999999919 0.94350477231486785 0.95283732669610532 13.611079032567567 -1.313783996746287 16.722542095007828 -0.24775233534977678 0.17289302355364414 155.18214285714271
decision_type=2 2 2 2 2 2 2 2 2 2 2 2 2 2 2 2 2 2 2 2 2 2 2 2
left_child=1 7 3 4 -2 10 20 12 -9 14 15 -8 -1 19 -10 16 22 -4 -15 23 -7 -3 -5 -14
right_child=2 21 17 5 -6 6 11 8 9 -11 -12 -13 13 18 -16 -17 -18 -19 -20 -21 -22 -23 -24 -25
leaf_value=-0.041319738372926587 0.058500664567289487 -0.045489336416763324 -0.039547844646876176 0.023082222641963614 0.0082644041674223637 0.019131053727824213 0.022281456283509998 -0.018258003970518574 0.056134980021937668 -0.0076858930644123314 -0.02804383436343872 -0.019911758196975413 -0.04169043489933514 -0.0066682665347664472 0.012521185299535545 0.027119376013209552 -0.022694028326073801 -0.0035722138655671573 0.027603160844289251 -0.00021009328903002139 0.048801748072185826 -0.014738956664419127 -0.0062037946126389434 -0.016707767453038033
leaf_weight=37.756405472755432 39.736839681863785 50.03128769993782 38.87314561009407 42.548595428466797 73.239880099892616 71.654071420431137 38.339051276445389 42.392673820257187 37.484828263521194 41.776127249002457 66.544883608818054 55.37768143415451 41.372195154428482 47.036391332745552 41.373235940933228 42.689729154109955 71.62407873570919 48.438176989555359 45.269097864627838 51.571386396884918 50.121276184916496 42.457458332180977 55.623587891459465 41.222322463989258
leaf_count=165 179 214 165 187 316 315 170 185 171 183 284 235 180 200 187 187 308 207 197 223 224 182 241 178
internal_value=-0.00110882 -0.00855704 0.00446104 0.00793078 0.0259766 0.00379751 0.0165895 -0.00360308 0.00931805 0.0190665 -0.00608128 -0.00258771 -0.0115822 -0.00659158 0.0332941 0.000801785 -0.0058269 -0.0196006 0.0101057 -0.0180913 0.0313733 -0.0313802 0.00646885 -0.029255
internal_weight=1214.55 519.743 694.811 607.5 112.977 494.523 215.492 427.255 163.027 120.634 279.031 93.7167 264.228 226.471 78.8581 212.486 169.796 87.3113 92.3055 134.166 121.775 92.4887 98.1722 82.5945
internal_count=5283 2265 3018 2646 495 2151 944 1869 726 541 1207 405 1143 978 358 923 736 372 397 581 539 396 428 358
is_linear=0
shrinkage=0.0552974


Tree=27
num_leaves=26
num_cat=0
split_feature=0 25 13 0 1 5 3 14 1 5 0 5 18 26 17 1 6 12 12 28 13 0 0 26 22
split_gain=14.7661 17.2358 15.4621 14.1448 12.9269 14.2558 11.6167 13.5202 17.7229 11.1077 15.8299 15 14.4587 12.2677 12.0917 10.4969 8.60858 9.83422 7.89608 8.57449 7.71171 7.55851 6.41076 5.51775 5.50027
threshold=-0.022326088898311221 60.719269767050619 49.9657980913233 0.25873987856022135 0.38757263197036768 1.0158726049477986 84.862857142857024 -0.26237195915536077 -2.586882126132017 2.2561495284044613 0.55668746158474847 1.2025759021682303 -0.76942088429381317 0.79758379575222149 0.42582887301505506 0.46782360967209119 0.80672710212237153 18.321841476038685 12.173334878441379 39.019999999998625 45.26758190949112 -1.2704257101079972 -0.24775233534977678 0.348901513123201 0.12940952255126045
decision_type=2 2 2 2 2 2 2 2 2 2 2 2 2 2 2 2 2 2 2 2 2 2 2 2 2
left_child=1 4 3 -2 6 20 -1 8 24 10 12 23 -4 -11 15 -14 -17 -18 -13 -20 -6 -10 -3 -12 -8
right_child=2 22 9 -5 5 -7 7 -9 21 13 11 18 14 -15 -16 16 17 -19 19 -21 -22 -23 -24 -25 -26
leaf_value=-0.03936723585810524 0.0074888915583506384 -0.04320253218393582 0.022590248431547066 0.052242764940481176 0.014249373555003221 0.027896765884320395 -0.0055481014609879385 -0.035710293047504928 -0.0022913794189610222 -0.031762752999817422 0.050536620385002486 -0.012117618598995079 -0.026298285720132958 0.0064187624070250731 -0.033156412820472492 0.026738895492457861 0.015072329212108297 -0.023383096440144493 0.02840571319247915 -0.0029666098417084935 -0.017997631377491267 0.02716016986859169 -0.0139346473600862 0.020578412501135471 -0.034649846282528513
leaf_weight=37.456536278128624 52.901283755898476 49.780925765633583 47.990075632929802 36.153882831335068 37.247610107064247 68.830536723136902 40.225018292665482 38.986510261893272 46.234586611390114 59.466775953769684 36.74458934366703 52.788047641515732 43.731636494398117 44.684103801846504 55.013622790575027 38.343616262078285 38.599896594882011 42.076936528086662 57.440728932619095 48.910289764404297 56.599887371063232 61.618946582078934 42.42221961915493 38.802789434790611 38.954867988824844
leaf_count=165 233 214 208 166 165 317 174 168 197 253 166 226 188 193 235 167 168 180 253 211 244 271 182 171 168
internal_value=-0.00105003 -0.00810898 0.00422335 0.0256896 -0.00341504 0.00882362 -0.0109784 -0.00624204 -5.37818e-05 0.00105207 0.0044728 0.0149319 -0.00475786 -0.0153436 -0.01082 -0.00323681 0.00526295 -0.00494584 0.00529491 0.013956 -0.00514843 0.0145022 -0.0297442 0.0351786 -0.0198753
internal_weight=1212.01 518.358 693.648 89.0552 426.155 162.678 263.476 226.02 187.033 604.593 500.442 234.686 265.756 104.151 217.766 162.752 119.02 80.6768 159.139 106.351 93.8475 107.854 92.2031 75.5474 79.1799
internal_count=5283 2265 3018 399 1869 726 1143 978 810 2619 2173 1027 1146 446 938 703 515 348 690 464 409 468 396 337 342
is_linear=0
shrinkage=0.0552974


Tree=28
num_leaves=24
num_cat=0
split_feature=1 16 0 4 21 19 19 24 0 1 6 16 13 15 23 8 16 29 14 11 23 10 24
split_gain=13.52 14.7772 17.5193 14.736 13.6836 14.8749 12.8217 10.7127 17.5639 14.8357 12.8531 12.074 10.2107 9.03522 8.84336 8.53023 8.2778 7.72065 7.1408 6.82797 7.684 8.43836 6.22677
threshold=-0.38200533023767241 34.314364191511821 0.56445788098528082 -0.10934512640803178 1.0000000180025095e-35 4.0317496310736489 13.9778650520644 0.1294095225512602 0.3043247791370885 -1.0443112779839945 0.95328079860424553 13.611079032567567 45.918065440846611 0.52649100023819317 44.315808243901863 21.350513488521766 18.251747769087391 -0.015115780813923506 -0.59075641593391837 1.1708712137327713 43.49643322435999 0.5382559319986332 -0.3794095225512602
decision_type=2 2 2 2 2 2 2 2 2 2 2 2 2 2 2 2 2 2 2 2 2 2 2
left_child=7 2 3 14 -5 12 -3 8 10 11 -1 -9 -6 -4 -2 -15 -13 -17 -12 20 -14 -22 -23
right_child=1 6 13 4 5 -7 -8 9 -10 -11 18 16 19 15 -16 17 -18 -19 -20 -21 21 22 -24
leaf_value=-0.0063559175634187561 0.03256228918304542 -0.041966883172844624 0.04393310883266089 -0.031018529146554286 0.031115533543907784 -0.026203962794969837 0.0016212408249733708 -0.012270997956969875 0.0072903076619395052 -0.026839595772420274 -0.026408145903178075 0.041453769297407621 -0.011203465684369871 0.037347527624999717 0.00021491157196312373 0.025691377770273242 0.0077175662648852851 -0.0044812182584929852 -0.0557603152666174 -0.020055793546317847 0.032261350802789773 -0.0082884962436144422 0.017067882151112403
leaf_weight=63.100001662969589 61.534196570515633 38.621696516871452 39.134068712592125 50.221217915415764 38.199130594730377 56.879658699035645 43.347062021493912 48.943291381001472 66.337604343891144 44.13234181702137 65.934244856238365 37.629118472337723 67.283701285719872 36.064123660326004 44.261953517794609 40.358594313263893 53.816646501421928 70.807025596499443 41.440492510795593 40.759365320205688 41.840009227395058 63.533076778054237 54.735613375902176
leaf_count=280 280 164 179 217 176 242 186 210 290 192 287 164 295 164 194 176 231 306 182 174 185 272 237
internal_value=-0.000994831 0.00327998 0.00586435 0.000641812 -0.00406765 -0.000322286 -0.0188861 -0.0089873 -0.0167666 0.000982727 -0.026156 0.00978295 0.00449602 0.0203936 0.019025 0.0140997 0.0216363 0.00649033 -0.0377836 0.000679256 0.00441876 0.0110085 0.00344798
internal_weight=1208.91 787.58 705.612 519.248 413.452 363.231 81.9688 421.334 236.812 184.521 170.475 140.389 306.351 186.364 105.796 147.23 91.4458 111.166 107.375 268.152 227.392 160.109 118.269
internal_count=5283 3447 3097 2272 1798 1581 350 1836 1039 797 749 605 1339 825 474 646 395 482 469 1163 989 694 509
is_linear=0
shrinkage=0.0552974


Tree=29
num_leaves=24
num_cat=0
split_feature=0 25 16 18 2 0 7 19 8 1 4 24 15 19 7 22 4 12 14 16 1 1 28
split_gain=12.5694 15.1231 14.8093 12.2181 15.7951 15.1179 17.5156 16.9294 11.0644 10.5459 16.0655 9.86794 10.9765 9.56076 8.67127 7.67507 7.12983 7.00358 6.78439 6.47525 7.02411 6.52302 5.75369
threshold=-0.022326088898311221 60.719269767050619 34.314364191511821 -0.76942088429381317 59.680279800181133 0.55668746158474847 354.37321428571471 2.8222274871812432 21.508495471817287 0.38757263197036768 -0.18811348030716146 -0.3794095225512602 -1.0100926913250892 13.9778650520644 370.01749999999919 0.25881904510252091 -0.097063908649206249 16.722542095007828 0.23482470492683929 13.611079032567567 -2.5494277701618824 -1.3445493315191179 43.284999999998043
decision_type=2 2 2 2 2 2 2 2 2 2 2 2 2 2 2 2 2 2 2 2 2 2 2
left_child=1 9 3 4 -2 7 17 14 -8 11 -11 12 -1 -4 18 -12 -9 -7 -5 20 -13 -21 -3
right_child=2 22 13 5 -6 6 8 16 -10 10 15 19 -14 -15 -16 -17 -18 -19 -20 21 -22 -23 -24
leaf_value=-0.0049754622887631418 0.042175053502983458 -0.013982890948590431 -0.037743562615432442 0.013941504864266459 0.00058432717830255907 0.017066534238333774 0.019167482069747045 -0.0037217636426075647 -0.019433979792658804 0.039222517850253637 -0.013295337225149109 -0.029763304955979876 -0.042754766346048342 -0.00096895803327536978 0.028830923565268358 0.014546890033269333 -0.032692520037106938 0.04418928004392874 -0.011755130946699737 0.025010254625367566 0.0013549488780094422 -0.0066694344826502862 -0.041708460232645878
leaf_weight=45.904083058238029 61.697362512350082 46.012007176876068 38.710156425833702 53.577045068144798 50.618291169404984 71.289002805948257 37.947928756475449 41.163989692926407 55.281527891755104 38.182455867528915 72.044368162751198 38.614180326461792 47.82854637503624 48.286544024944305 38.345604971051216 51.623316183686256 69.937593787908554 49.313330486416817 74.798678234219551 40.590751424431801 50.894179716706276 38.121733248233795 45.636129215359688
leaf_count=204 274 199 165 237 221 315 170 177 235 179 316 167 210 207 169 231 301 224 323 177 219 166 197
internal_value=-0.000941659 -0.0074753 0.00393056 0.00700583 0.0234356 0.00324257 0.0142858 -0.00525606 -0.00366292 -0.00306689 0.00801353 -0.00991984 -0.0242715 -0.0173461 0.00586481 -0.0016406 -0.0219541 0.0281852 -0.00100303 -0.00190435 -0.0120574 0.00963239 -0.0278034
internal_weight=1206.42 515.452 690.967 603.97 112.316 491.655 213.832 277.823 93.2295 423.804 161.85 261.953 93.7326 86.9967 166.721 123.668 111.102 120.602 128.376 168.221 89.5084 78.7125 91.6481
internal_count=5283 2265 3018 2646 495 2151 944 1207 405 1869 726 1143 414 372 729 547 478 539 560 729 386 343 396
is_linear=0
shrinkage=0.0552974


Tree=30
num_leaves=26
num_cat=0
split_feature=3 3 1 4 22 4 0 16 0 10 0 5 0 1 4 16 21 12 7 7 23 12 3 17 11
split_gain=10.3177 14.7613 15.0394 17.9527 14.7861 12.1647 11.4358 12.929 10.7491 19.4955 17.6319 14.3394 12.7045 9.93633 13.9914 9.12786 8.9459 10.1323 7.33793 8.25806 10.4606 7.2385 6.34888 6.11868 5.19321
threshold=58.526785714286113 91.392857142857281 -1.3759391456864387 -0.52052375950545882 -0.25881904510252113 -0.674270163679067 -0.91456417559888081 19.154806183755557 1.6543941420789856 0.66172435026307019 0.44418727921849982 1.7040805774079788 0.5098625718855222 2.5948333672152328 0.37066207931582545 22.10284168479674 1.0000000180025095e-35 22.859796706392299 288.42249999999933 239.11071428571481 29.948536389833119 14.857264716816948 79.246785714285991 -0.30740262301218174 0.92695579033643616
decision_type=2 2 2 2 2 2 2 2 2 2 2 2 2 2 2 2 2 2 2 2 2 2 2 2 2
left_child=-1 13 4 -4 5 -3 -6 -8 9 10 15 12 24 14 18 16 23 -18 19 20 -2 -14 -15 -5 -11
right_child=1 2 3 8 6 -7 7 -9 -10 11 -12 -13 21 22 -16 -17 17 -19 -20 -21 -22 -23 -24 -25 -26
leaf_value=0.022604908920791467 0.0066277530298391807 0.025065581527360006 0.040161032000478332 0.0093303028257133123 -0.041805098816127782 -0.013602694285163721 0.010481377225239672 -0.031067209888249282 0.023841918392802024 -0.0058161403168352265 0.040909123391434168 -0.034091559036109061 -0.0056384333214322324 0.019340095366497632 -0.044485461452331398 -0.017994090334591675 0.0026630713072499329 0.041228216229347192 -0.03183870144116345 0.008629484264398201 -0.030524431104273116 0.027120426056997333 -0.011948773314999724 -0.018020646517473884 -0.033484349769665529
leaf_weight=46.833076611161232 36.30781152844429 47.891465693712234 40.515736982226372 59.523085474967957 57.110104560852051 50.898302614688873 45.496352687478065 45.28844553232193 62.300190731883049 44.077277809381485 45.173293069005013 65.708667933940887 38.256204947829247 39.281402990221977 51.428863570094109 48.416802063584328 40.661364883184433 42.281655922532082 45.706612110137939 63.823837980628014 62.393126890063286 43.750648811459541 39.231442585587502 42.529354989528656 38.94279856979847
leaf_count=205 166 207 184 266 247 220 200 197 272 189 208 277 165 174 224 209 178 197 197 278 270 199 170 184 166
internal_value=-0.00274589 -0.00374388 0.000107104 0.00475394 -0.0114081 0.00510922 -0.0224656 -0.0102569 0.00222826 -0.000422084 0.00941317 -0.0123037 -0.0036021 -0.0135241 -0.0187371 0.00328729 0.00888032 0.022341 -0.0123428 -0.0068162 -0.0168199 0.0117965 0.00365639 -0.00204914 -0.0188146
internal_weight=1243.83 1196.99 858.822 612.137 246.685 98.7898 147.895 90.7848 571.621 509.321 278.586 230.736 165.027 338.173 259.66 233.412 184.995 82.943 208.231 162.525 98.7009 82.0069 78.5128 102.052 83.0201
internal_count=5449 5244 3765 2694 1071 427 644 397 2510 2238 1242 996 719 1479 1135 1034 825 375 911 714 436 364 344 450 355
is_linear=0
shrinkage=0.0552974


Tree=31
num_leaves=25
num_cat=0
split_feature=2 14 0 3 24 0 12 3 3 2 27 10 5 0 17 10 0 16 28 3 14 2 11 5
split_gain=10.9344 16.0755 14.643 13.7715 11.3736 11.3053 10.9157 14.1055 10.1827 12.4234 10.1337 9.45937 9.08945 8.83987 11.9041 8.48363 9.4859 17.876 15.8103 8.42868 7.4073 8.70016 5.03772 4.65138
threshold=48.633450673415204 -0.70566052971343096 -0.57999504826585768 99.679642857143222 -0.3794095225512602 0.3043247791370885 25.645014013786241 58.526785714286113 112.73964285714297 55.935514405657329 1.3276183814930163 0.2999339052489432 2.374717098486228 1.1069967168699015 0.058148221096099302 0.32674111789067678 0.56445788098528082 29.755853808495232 25.239999999999785 89.08392857142853 0.54957839613362103 65.706017307006391 0.91369328326714416 1.9564527238162646
decision_type=2 2 2 2 2 2 2 2 2 2 2 2 2 2 2 2 2 2 2 2 2 2 2 2
left_child=4 3 -3 -2 5 11 7 -4 9 -9 23 -1 13 14 -10 -11 20 -18 -19 -8 21 -17 -16 -6
right_child=1 2 6 -5 10 -7 19 8 12 15 -12 -13 -14 -15 22 16 17 18 -20 -21 -22 -23 -24 -25
leaf_value=-0.018606192793286007 -0.0029228051445485317 -0.031094388732493216 0.028277932852962002 0.035565741111372867 -0.003040145541985177 -0.0018542718559836238 -0.0045844482557356432 -0.040417005148780875 0.024813103960842929 0.017850477730151249 -0.019917645452530695 -0.057771681726399814 -0.016773006699140478 0.03355701549706791 0.0045463889115217098 -0.022623054093641355 0.029597855193011842 -0.038763474322393458 0.0084496225821281377 0.028330843047662077 -0.036960522341755668 0.0041812194887482614 -0.021470951251537505 0.019392081968518531
leaf_weight=38.153054133057594 48.251019418239594 50.626655668020248 40.859123393893242 67.940854281187057 63.018297716975212 40.564620047807693 36.989573389291763 37.767432376742363 51.293092057108879 36.674485400319099 68.699734732508659 37.22437559068203 49.006145969033241 38.030904442071915 45.011895075440407 90.802506387233734 45.055644184350967 39.712729707360268 46.792936146259308 64.879606500267982 46.337793231010437 61.847949653863907 45.117688536643982 50.49518583714962
leaf_count=172 212 224 179 314 276 175 162 164 229 163 293 167 209 169 197 389 205 171 203 297 198 268 194 219
internal_value=-0.00259956 0.000317017 -0.00238747 0.0195468 -0.011824 -0.0253459 -0.000504944 -0.00305564 -0.00509071 -0.0103554 -0.0032055 -0.0379945 0.0042312 0.0100025 0.00362693 -0.00724145 -0.0100428 0.00145204 -0.0132057 0.0163324 -0.0176532 -0.0117565 -0.0084482 0.00692163
internal_weight=1241.15 942.998 826.806 116.192 298.155 115.942 776.18 674.31 633.451 404.991 182.213 75.3774 228.46 179.454 141.423 367.224 330.55 131.561 86.5057 101.869 198.988 152.65 90.1296 113.513
internal_count=5449 4147 3621 526 1302 514 3397 2938 2759 1761 788 339 998 789 620 1597 1434 579 374 459 855 657 391 495
is_linear=0
shrinkage=0.0552974


Tree=32
num_leaves=26
num_cat=0
split_feature=2 3 18 2 4 18 20 8 5 20 6 8 7 19 8 28 3 4 9 10 6 13 4 2 6
split_gain=9.90974 12.0036 13.7785 11.7414 19.5357 16.2513 23.4214 9.67793 11.4913 9.46707 9.24741 21.8425 10.0081 10.0467 8.588 8.04935 8.17935 13.4347 9.62162 8.04923 7.45997 7.29547 6.68247 6.49891 5.63323
threshold=71.020613963457478 92.51464285714313 0.7694208842938135 48.633450673415204 -0.54772394364237054 -1.0000000180025095e-35 1.0403122890928798 28.035888898248828 0.77785764469870233 1.0439323419230335 1.1322310140582665 22.558464886951366 378.16749999999939 -1.2604658535988509 32.630533045299707 58.72500000000219 124.75428571428621 0.41451070601142953 52.016674073389375 0.28890280523651962 0.85056992741468063 48.33467583850355 0.11881030840042862 40.519350174127048 0.92316395915806426
decision_type=2 2 2 2 2 2 2 2 2 2 2 2 2 2 2 2 2 2 2 2 2 2 2 2 2
left_child=1 2 7 5 -5 9 23 8 24 -3 12 -12 15 -14 -13 16 17 18 -6 -9 -2 -17 -4 -7 -1
right_child=20 3 22 4 10 6 -8 19 -10 -11 11 14 13 -15 -16 21 -18 -19 -20 -21 -22 -23 -24 -25 -26
leaf_value=0.0035181239190610679 -0.0036039477104515094 -0.011615411996839591 -0.017152492000978681 0.043248857572876893 -0.0039809674739592861 0.00043484640918654849 0.02671149785235152 0.002142142127210857 0.019542897467762031 -0.043674372227863106 0.038908697743944315 -0.016756086088197703 -0.0015688204997810744 -0.039788980501779231 0.016377828482802437 0.0079725951661300323 0.030881041094694101 -0.024224265471815994 0.032570081266530722 -0.02971676956633592 0.028730399359079214 -0.023358911574117788 -0.04939268202151071 -0.0285359419480401 -0.026052111075791549
leaf_weight=38.15594071149826 36.898074015974998 65.55260306596756 40.429870456457138 36.725106135010719 43.24236948788166 41.674555271863937 67.12841385602951 36.180886536836624 67.507214471697807 49.224073067307472 60.063026666641235 58.563324272632599 43.386337801814079 40.37075138092041 39.842233598232269 37.126461431384087 40.080805495381355 39.668981030583382 44.009420454502106 71.38818521797657 52.074793890118599 57.117007210850716 38.313994333148003 53.600153848528862 39.778953120112419
leaf_count=165 161 284 177 170 190 183 295 164 299 216 275 253 197 172 172 166 181 171 198 308 237 248 167 230 170
internal_value=-0.0024626 -0.00384059 -0.0127065 -0.000238292 0.00450624 -0.00948531 0.0017481 -0.00641323 0.00287243 -0.0253892 0.00166099 0.0127062 -0.00341312 -0.0200108 -0.00328781 0.00191029 0.00920257 0.00231701 0.0144301 -0.018963 0.0152747 -0.0109734 -0.0328653 -0.0158256 -0.0115378
internal_weight=1238.1 1149.13 331.755 817.376 540.196 277.18 162.403 253.011 145.442 114.777 503.471 158.469 345.002 83.7571 98.4056 261.245 167.002 126.921 87.2518 107.569 88.9729 94.2435 78.7439 95.2747 77.9349
internal_count=5449 5051 1450 3601 2393 1208 708 1106 634 500 2223 700 1523 369 425 1154 740 559 388 472 398 414 344 413 335
is_linear=0
shrinkage=0.0552974


Tree=33
num_leaves=27
num_cat=0
split_feature=10 0 5 1 6 5 3 13 1 0 8 3 10 31 28 30 6 13 6 0 6 15 0 1 26 14
split_gain=9.44014 13.5325 22.4446 15.5202 13.775 17.9531 13.8353 13.8727 13.3923 13.205 18.7148 12.8807 12.0809 10.6347 9.3391 8.94008 8.301 7.92755 8.83399 7.55002 7.50743 6.88316 6.10164 5.86089 5.32807 3.32122
threshold=0.15450412404161867 -0.022326088898311221 1.0592230510469138 -1.3759391456864387 0.8579937092803035 1.7040805774079788 68.079642857142474 50.225213308109446 -1.4543019421387691 0.97349125142285342 24.650594974426109 94.870714285714328 0.68294163146940801 37.136912549187485 36.220000000001171 1.0000000180025095e-35 0.94922748562109527 59.040033666860758 1.0486766674051877 -0.54315877715357386 1.115928085294188 0.41138234871245755 -1.2704257101079972 1.2307592120530344 0.10172643858809007 -1.2519723179940876
decision_type=2 2 2 2 2 2 2 2 2 2 2 2 2 2 2 2 2 2 2 2 2 2 2 2 2 2
left_child=13 2 14 22 5 11 -6 -8 -9 17 -11 24 -13 16 23 -12 -1 20 -19 -5 -10 -16 -4 -2 -3 -18
right_child=1 4 3 19 6 -7 7 8 9 10 15 12 -14 -15 21 -17 25 18 -20 -21 -22 -23 -24 -25 -26 -27
leaf_value=0.019301201561427218 -0.029380008871252958 -0.034544235082936289 -0.03427934287310367 0.00030815281070268452 0.035137266950793722 -0.044248193818600359 0.027782366973650878 -0.026048275884069681 -0.012823932189441058 0.050417256902673797 0.020013575072333378 0.03408077907426639 -0.0066448113833458529 0.029698028160600475 -0.026203540817029178 -0.012352955756676181 0.00082563659826790216 0.0020928025981907365 -0.0315310410321155 0.028346280054152677 0.019280859187053988 -0.058815065470157787 -0.0051099456885693893 0.00069881354328413237 -0.0058746865727308016 -0.022082878031507967
leaf_weight=44.443345725536346 40.969518974423409 38.521416366100311 40.628437295556068 70.969254374504089 43.159960836172104 40.97945599257946 57.131776660680771 56.763626292347908 39.174003630876541 35.384837940335274 52.33403754234314 38.350347444415092 51.961874350905418 54.696708410978317 41.421841040253639 51.24126036465168 38.071374848484993 40.528616353869438 56.894421026110649 49.735985934734344 50.518513008952141 38.248664766550064 47.273372799158096 37.521441534161568 40.553493484854698 38.377893000841141
leaf_count=202 181 165 178 320 193 176 260 243 172 165 228 174 225 247 181 219 166 178 243 223 224 166 209 165 176 170
internal_value=-0.00233024 -0.00429798 -0.0128839 -0.000973394 0.00024191 -0.0115541 0.00538627 0.00245032 -0.00134049 0.00296886 0.0158685 -0.00360303 0.0106328 0.00952971 -0.0285769 0.00400402 0.000376502 -0.00660417 -0.017513 0.0118789 0.00521532 -0.0419095 -0.0186088 -0.0150177 -0.0198586 -0.010644
internal_weight=1235.86 1060.27 366.769 208.607 693.498 210.367 483.131 439.971 382.839 326.076 138.96 169.387 90.3122 175.589 158.161 103.575 120.893 187.116 97.423 120.705 89.6925 79.6705 87.9018 78.491 79.0749 76.4493
internal_count=5449 4664 1623 930 3041 916 2125 1932 1672 1429 612 740 399 785 693 447 538 817 421 543 396 347 387 346 341 336
is_linear=0
shrinkage=0.0552974


Tree=34
num_leaves=22
num_cat=0
split_feature=2 14 21 18 22 20 13 12 28 27 27 1 1 2 9 9 9 25 20 2 5
split_gain=8.77194 13.284 11.9563 11.1611 17.2221 15.6854 14.2069 10.8746 8.3803 8.27021 7.19949 6.97023 10.3335 6.67605 5.70611 6.93147 8.37758 7.51517 7.00062 8.0725 3.93546
threshold=48.633450673415204 -0.61800735898857584 1.0000000180025095e-35 -1.0000000180025095e-35 0.25881904510252091 1.0403122890928798 50.225213308109446 25.645014013786241 102.41500000000089 1.8738015305106048 -3.383573791878463 0.71392936177121513 -0.43776214510940487 40.519350174127048 76.14390887224684 72.416908649485521 66.485834950918687 77.908854075922491 1.0111429471703408 59.297995787673862 1.4304101320019618
decision_type=2 2 2 2 2 2 2 2 2 2 2 2 2 2 2 2 2 2 2 2 2
left_child=3 9 11 4 -1 13 -7 8 10 20 -4 12 -3 -5 15 16 18 -18 -12 -20 -2
right_child=1 2 7 5 -6 6 -8 -9 -10 -11 14 -13 -14 -15 -16 -17 17 -19 19 -21 -22
leaf_value=-0.0037297160971309995 -0.0075665810923992083 -0.023191259770154897 0.013182668982918028 0.00075853897678437149 -0.045374714946959237 0.040991915397487297 -0.0066471694976162673 0.023992597161111039 0.023971387031432881 0.033994645706090641 -0.027672891449908983 -0.037011467690092878 0.013516066904576964 -0.028203244999454563 0.011039065447323405 -0.029373452727646927 -0.01045882023416345 0.019141879318305945 -0.017524250302183384 0.002993376138043399 0.016607228135596747
leaf_weight=64.250904932618141 37.104253202676773 61.569086879491806 72.897340446710587 41.535020351409912 57.162878766655922 38.207757189869881 37.551212668418884 56.202784940600395 37.140994384884834 51.056605935096741 56.244248658418655 38.44536255300045 37.311217159032822 57.441559284925461 56.94003564119339 39.931290790438652 42.308340847492218 67.469223871827126 104.09988750517368 133.04292567074299 45.203537404537201
leaf_count=283 167 271 322 183 253 170 164 258 166 234 241 167 166 249 249 175 185 297 457 584 208
internal_value=-0.00220629 0.000413896 -0.0022662 -0.0104967 -0.023358 -0.00154627 0.0173396 0.000793148 -0.00134868 0.0165549 -0.00300303 -0.0171031 -0.00932156 -0.0160154 -0.00537244 -0.00749257 -0.00530859 0.007693 -0.0101831 -0.00601342 0.00570664
